{"learner":{"attributes":{"scikit_learn":"{\"_estimator_type\": \"classifier\"}"},"feature_names":["time_spent","answer_changes","revisits","is_correct","marked_for_review","time_pressure","fatigue","difficulty"],"feature_types":["float","int","int","int","int","int","float","int"],"gradient_booster":{"model":{"gbtree_model_param":{"num_parallel_tree":"1","num_trees":"100"},"iteration_indptr":[0,1,2,3,4,5,6,7,8,9,10,11,12,13,14,15,16,17,18,19,20,21,22,23,24,25,26,27,28,29,30,31,32,33,34,35,36,37,38,39,40,41,42,43,44,45,46,47,48,49,50,51,52,53,54,55,56,57,58,59,60,61,62,63,64,65,66,67,68,69,70,71,72,73,74,75,76,77,78,79,80,81,82,83,84,85,86,87,88,89,90,91,92,93,94,95,96,97,98,99,100],"tree_info":[0,0,0,0,0,0,0,0,0,0,0,0,0,0,0,0,0,0,0,0,0,0,0,0,0,0,0,0,0,0,0,0,0,0,0,0,0,0,0,0,0,0,0,0,0,0,0,0,0,0,0,0,0,0,0,0,0,0,0,0,0,0,0,0,0,0,0,0,0,0,0,0,0,0,0,0,0,0,0,0,0,0,0,0,0,0,0,0,0,0,0,0,0,0,0,0,0,0,0,0],"trees":[{"base_weights":[-9.626142E-2,-4.098795E-1,2.638775E0,3.4369504E0,-9.737547E-1,1.1117935E0,-5.506071E-1,6.793675E-1,-3.7022343E-1,5.155207E-1,-9.2493963E-1,-3.889789E-1,1.9506704E0,9.880488E-2,-1.1067824E0,4.660819E-1,-3.333069E-1,7.174243E-1,1.4107029E-1,-6.972892E-2,-3.6224547E-1],"categories":[],"categories_nodes":[],"categories_segments":[],"categories_sizes":[],"default_left":[0,0,0,0,0,0,0,0,0,0,0,0,0,0,0,0,0,0,0,0,0],"id":0,"left_children":[1,-1,3,5,7,-1,9,11,-1,-1,13,15,17,-1,19,-1,-1,-1,-1,-1,-1],"loss_changes":[4.309555E3,0E0,1.1377969E3,3.4796387E2,3.1813393E1,0E0,1.9639282E1,1.4934725E1,0E0,0E0,4.673401E0,1.0850403E1,2.093727E0,0E0,1.1923199E0,0E0,0E0,0E0,0E0,0E0,0E0],"parents":[2147483647,0,0,2,2,3,3,4,4,6,6,7,7,10,10,11,11,12,12,14,14],"right_children":[2,-1,4,6,8,-1,10,12,-1,-1,14,16,18,-1,20,-1,-1,-1,-1,-1,-1],"split_conditions":[1E0,-4.098795E-1,3E0,3E0,1.29E2,1.1117935E0,1.19E2,1E0,-3.7022343E-1,5.155207E-1,2E-1,4.7E1,1.1E2,9.880488E-2,1.52E2,4.660819E-1,-3.333069E-1,7.174243E-1,1.4107029E-1,-6.972892E-2,-3.6224547E-1],"split_indices":[3,0,1,2,0,0,0,7,0,0,6,0,0,0,0,0,0,0,0,0,0],"split_type":[0,0,0,0,0,0,0,0,0,0,0,0,0,0,0,0,0,0,0,0,0],"sum_hessian":[1.2386553E3,8.462178E2,3.9243744E2,3.214605E2,7.097691E1,3.012095E2,2.025103E1,9.437373E0,6.153954E1,2.3593433E0,1.7891687E1,5.5051346E0,3.9322388E0,2.1627314E0,1.5728955E1,1.1796716E0,4.325463E0,2.5559552E0,1.3762836E0,1.9661194E0,1.37628355E1],"tree_param":{"num_deleted":"0","num_feature":"8","num_nodes":"21","size_leaf_vector":"1"}},{"base_weights":[-1.5864973E-1,-3.7270287E-1,1.4385815E0,1.7814623E0,-8.309038E-1,5.6678414E-1,-4.4317302E-1,5.171069E-1,-1.0939736E0,1.1553365E0,-7.8694206E-1,-2.996838E-1,1.2974372E0,-8.996929E-1,-3.6336187E-1,1.2942646E-2,4.901523E-1,-3.467289E-1,-1.5491037E-1,4.3676758E-1,-3.0579844E-1,4.4421113E-1,7.5133614E-2,-3.579049E-1,9.492385E-1,6.5093416E-1,-3.1902075E-1,7.85888E-1,-2.3237096E-1],"categories":[],"categories_nodes":[],"categories_segments":[],"categories_sizes":[],"default_left":[0,0,0,0,0,0,0,0,0,0,0,0,0,0,0,0,0,0,0,0,0,0,0,0,0,0,0,0,0],"id":1,"left_children":[1,-1,3,5,7,-1,9,11,13,15,17,19,21,23,-1,-1,-1,-1,25,-1,-1,-1,-1,-1,27,-1,-1,-1,-1],"loss_changes":[1.9755513E3,0E0,3.6052594E2,9.705786E1,2.2283493E1,0E0,1.1544384E1,7.1953545E0,8.469391E-2,1.9681325E0,3.672593E0,9.102323E0,7.131071E-1,1.376507E1,0E0,0E0,0E0,0E0,1.7605644E1,0E0,0E0,0E0,0E0,0E0,1.2816117E1,0E0,0E0,0E0,0E0],"parents":[2147483647,0,0,2,2,3,3,4,4,6,6,7,7,8,8,9,9,10,10,11,11,12,12,13,13,18,18,24,24],"right_children":[2,-1,4,6,8,-1,10,12,14,16,18,20,22,24,-1,-1,-1,-1,26,-1,-1,-1,-1,-1,28,-1,-1,-1,-1],"split_conditions":[1E0,-3.7270287E-1,3E0,3E0,1.29E2,5.6678414E-1,1.19E2,1E0,1.97E2,1.03E2,2E0,4.2E1,1.16E2,2E0,-3.6336187E-1,1.2942646E-2,4.901523E-1,-3.467289E-1,1.99E2,4.3676758E-1,-3.0579844E-1,4.4421113E-1,7.5133614E-2,-3.579049E-1,3E0,6.5093416E-1,-3.1902075E-1,7.85888E-1,-2.3237096E-1],"split_indices":[3,0,1,2,0,0,0,7,0,0,7,0,0,7,0,0,0,0,0,0,0,0,0,0,2,0,0,0,0],"split_type":[0,0,0,0,0,0,0,0,0,0,0,0,0,0,0,0,0,0,0,0,0,0,0,0,0,0,0,0,0],"sum_hessian":[1.1393053E3,6.7890344E2,4.604018E2,4.0015952E2,6.024229E1,3.8180582E2,1.8353687E1,9.679151E0,5.056314E1,2.8306246E0,1.5523062E1,5.030039E0,4.6491113E0,2.2293015E1,2.8270126E1,1.1794269E0,1.6511977E0,9.279425E0,6.243637E0,1.1649839E0,3.865055E0,3.6040149E0,1.0450964E0,1.9546772E1,2.7462409E0,1.3642921E0,4.879345E0,1.130805E0,1.6154358E0],"tree_param":{"num_deleted":"0","num_feature":"8","num_nodes":"29","size_leaf_vector":"1"}},{"base_weights":[-1.5699461E-1,-3.498016E-1,1.153701E0,1.4184855E0,-7.313722E-1,4.5088336E-1,-3.573156E-1,4.2547083E-1,-9.9700457E-1,9.074016E-1,-6.828266E-1,-2.3054335E-1,9.703826E-1,-7.913177E-1,-3.3786345E-1,1.0820408E-2,3.8073713E-1,-3.1725323E-1,-1.0585509E-1,3.499704E-1,-2.7664173E-1,3.8090625E-1,6.72119E-2,-3.318705E-1,7.038683E-1,4.6117005E-1,-2.8942865E-1,5.168562E-1,-2.0994136E-1],"categories":[],"categories_nodes":[],"categories_segments":[],"categories_sizes":[],"default_left":[0,0,0,0,0,0,0,0,0,0,0,0,0,0,0,0,0,0,0,0,0,0,0,0,0,0,0,0,0],"id":2,"left_children":[1,-1,3,5,7,-1,9,11,13,15,17,19,21,23,-1,-1,-1,-1,25,-1,-1,-1,-1,-1,27,-1,-1,-1,-1],"loss_changes":[1.2441697E3,0E0,2.0531927E2,5.441095E1,1.6116796E1,0E0,7.6660194E0,3.8831708E0,2.2048187E-1,1.1938305E0,2.9542298E0,6.344664E0,1.0076065E0,9.961084E0,0E0,0E0,0E0,0E0,1.0932092E1,0E0,0E0,0E0,0E0,0E0,6.9326077E0,0E0,0E0,0E0,0E0],"parents":[2147483647,0,0,2,2,3,3,4,4,6,6,7,7,8,8,9,9,10,10,11,11,12,12,13,13,18,18,24,24],"right_children":[2,-1,4,6,8,-1,10,12,14,16,18,20,22,24,-1,-1,-1,-1,26,-1,-1,-1,-1,-1,28,-1,-1,-1,-1],"split_conditions":[1E0,-3.498016E-1,3E0,3E0,1.29E2,4.5088336E-1,1.19E2,1E0,1.97E2,1.03E2,2E0,4.2E1,2E0,2E0,-3.3786345E-1,1.0820408E-2,3.8073713E-1,-3.1725323E-1,1.99E2,3.499704E-1,-2.7664173E-1,3.8090625E-1,6.72119E-2,-3.318705E-1,3E0,4.6117005E-1,-2.8942865E-1,5.168562E-1,-2.0994136E-1],"split_indices":[3,0,1,2,0,0,0,7,0,0,7,0,2,7,0,0,0,0,0,0,0,0,0,0,2,0,0,0,0],"split_type":[0,0,0,0,0,0,0,0,0,0,0,0,0,0,0,0,0,0,0,0,0,0,0,0,0,0,0,0,0],"sum_hessian":[9.3874976E2,5.304809E2,4.0826886E2,3.5820193E2,5.0066902E1,3.4208566E2,1.6116287E1,9.237103E0,4.08298E1,2.9329987E0,1.3183289E1,4.453043E0,4.7840605E0,1.850143E1,2.2328367E1,1.1830127E0,1.7499859E0,7.4878364E0,5.6954517E0,1.2470553E0,3.2059875E0,2.9141793E0,1.8698812E0,1.5497476E1,3.003955E0,1.6840707E0,4.011381E0,1.6087239E0,1.3952309E0],"tree_param":{"num_deleted":"0","num_feature":"8","num_nodes":"29","size_leaf_vector":"1"}},{"base_weights":[-1.5257952E-1,-3.3474553E-1,1.0105042E0,1.24237E0,-6.54975E-1,3.955635E-1,-2.958997E-1,3.6649665E-1,-9.2737323E-1,7.484071E-1,-6.0850096E-1,-1.8134539E-1,7.715348E-1,-7.126303E-1,-3.1943384E-1,9.046934E-3,3.1628338E-1,-2.942775E-1,-7.500903E-2,2.9400218E-1,-2.5255147E-1,3.0550253E-1,5.3694714E-2,-3.1248012E-1,5.600661E-1,3.6538118E-1,-2.6528114E-1,3.9498162E-1,-1.9080764E-1],"categories":[],"categories_nodes":[],"categories_segments":[],"categories_sizes":[],"default_left":[0,0,0,0,0,0,0,0,0,0,0,0,0,0,0,0,0,0,0,0,0,0,0,0,0,0,0,0,0],"id":3,"left_children":[1,-1,3,5,7,-1,9,11,13,15,17,19,21,23,-1,-1,-1,-1,25,-1,-1,-1,-1,-1,27,-1,-1,-1,-1],"loss_changes":[8.3749506E2,0E0,1.3161331E2,3.5269806E1,1.2039389E1,0E0,5.3069825E0,2.2632318E0,2.2905159E-1,8.189006E-1,2.3085241E0,4.566081E0,6.5013885E-1,7.318508E0,0E0,0E0,0E0,0E0,7.3671527E0,0E0,0E0,0E0,0E0,0E0,4.4156904E0,0E0,0E0,0E0,0E0],"parents":[2147483647,0,0,2,2,3,3,4,4,6,6,7,7,8,8,9,9,10,10,11,11,12,12,13,13,18,18,24,24],"right_children":[2,-1,4,6,8,-1,10,12,14,16,18,20,22,24,-1,-1,-1,-1,26,-1,-1,-1,-1,-1,28,-1,-1,-1,-1],"split_conditions":[1E0,-3.3474553E-1,3E0,3E0,1.29E2,3.955635E-1,1.19E2,1E0,1.97E2,1.03E2,2E0,4.2E1,2E0,2E0,-3.1943384E-1,9.046934E-3,3.1628338E-1,-2.942775E-1,1.99E2,2.9400218E-1,-2.5255147E-1,3.0550253E-1,5.3694714E-2,-3.1248012E-1,3E0,3.6538118E-1,-2.6528114E-1,3.9498162E-1,-1.9080764E-1],"split_indices":[3,0,1,2,0,0,0,7,0,0,7,0,2,7,0,0,0,0,0,0,0,0,0,0,2,0,0,0,0],"split_type":[0,0,0,0,0,0,0,0,0,0,0,0,0,0,0,0,0,0,0,0,0,0,0,0,0,0,0,0,0],"sum_hessian":[7.4553845E2,4.0782663E2,3.3771185E2,2.9666464E2,4.104721E1,2.828031E2,1.3861546E1,8.568935E0,3.2478275E1,2.8722143E0,1.0989331E1,3.8771281E0,4.6918073E0,1.5086652E1,1.739162E1,1.185947E0,1.6862675E0,5.9776926E0,5.0116386E0,1.2302365E0,2.6468916E0,2.80494E0,1.8868673E0,1.2132254E1,2.9543982E0,1.7348666E0,3.2767718E0,1.7480094E0,1.2063888E0],"tree_param":{"num_deleted":"0","num_feature":"8","num_nodes":"29","size_leaf_vector":"1"}},{"base_weights":[-1.4851682E-1,-3.2440275E-1,9.2266744E-1,1.1385534E0,-5.9218454E-1,3.636675E-1,-2.4809451E-1,3.2045805E-1,-8.729907E-1,6.348562E-1,-5.5092055E-1,2.95993E-1,1.5654583E-2,-6.5021205E-1,-3.0479702E-1,7.5646294E-3,2.7270332E-1,-2.74701E-1,-5.342656E-2,-2.5105417E-1,3.603327E-1,-2.965609E-1,4.647663E-1,3.0667356E-1,-2.4428295E-1,-3.0542917E-3,1.9403978E-1,3.25301E-1,-1.7416267E-1],"categories":[],"categories_nodes":[],"categories_segments":[],"categories_sizes":[],"default_left":[0,0,0,0,0,0,0,0,0,0,0,0,0,0,0,0,0,0,0,0,0,0,0,0,0,0,0,0,0],"id":4,"left_children":[1,-1,3,5,7,-1,9,11,13,15,17,-1,19,21,-1,-1,-1,-1,23,-1,25,-1,27,-1,-1,-1,-1,-1,-1],"loss_changes":[5.81956E2,0E0,8.935722E1,2.4582306E1,9.116893E0,0E0,3.7779217E0,1.7805731E0,1.8800163E-1,6.0198975E-1,1.7806313E0,0E0,2.3832612E0,5.4356346E0,0E0,0E0,0E0,0E0,5.192173E0,0E0,6.162381E-1,0E0,3.0589163E0,0E0,0E0,0E0,0E0,0E0,0E0],"parents":[2147483647,0,0,2,2,3,3,4,4,6,6,7,7,8,8,9,9,10,10,12,12,13,13,18,18,20,20,22,22],"right_children":[2,-1,4,6,8,-1,10,12,14,16,18,-1,20,22,-1,-1,-1,-1,24,-1,26,-1,28,-1,-1,-1,-1,-1,-1],"split_conditions":[1E0,-3.2440275E-1,3E0,3E0,1.29E2,3.636675E-1,1.19E2,2.3333333E-1,1.97E2,1.03E2,2E0,2.95993E-1,5E-1,2E0,-3.0479702E-1,7.5646294E-3,2.7270332E-1,-2.74701E-1,1.99E2,-2.5105417E-1,8.3E1,-2.965609E-1,3E0,3.0667356E-1,-2.4428295E-1,-3.0542917E-3,1.9403978E-1,3.25301E-1,-1.7416267E-1],"split_indices":[3,0,1,2,0,0,0,6,0,0,7,0,6,7,0,0,0,0,0,0,0,0,2,0,0,0,0,0,0],"split_type":[0,0,0,0,0,0,0,0,0,0,0,0,0,0,0,0,0,0,0,0,0,0,0,0,0,0,0,0,0],"sum_hessian":[5.80407E2,3.102343E2,2.7017264E2,2.3668973E2,3.3482925E1,2.2486842E2,1.1821302E1,7.844962E0,2.5637964E1,2.7389371E0,9.082365E0,1.7604034E0,6.0845585E0,1.2191609E1,1.3446354E1,1.188355E0,1.5505822E0,4.7553234E0,4.3270416E0,1.3406883E0,4.7438703E0,9.440444E0,2.7511656E0,1.6503122E0,2.6767294E0,2.4890332E0,2.254837E0,1.7039009E0,1.0472646E0],"tree_param":{"num_deleted":"0","num_feature":"8","num_nodes":"29","size_leaf_vector":"1"}},{"base_weights":[-1.4516021E-1,-3.1704515E-1,8.594235E-1,1.0702437E0,-5.321575E-1,3.4341678E-1,-2.0895088E-1,3.0749086E-1,-8.0951333E-1,5.4794E-1,-5.0359815E-1,-1.5417376E-1,6.7585295E-1,-2.2941399E-1,-2.633825E-1,6.325477E-3,2.4039626E-1,-2.5689057E-1,-3.7537877E-2,2.4816291E-1,-2.3053727E-1,2.9050007E-1,2.3908769E-3,5.1217634E-2,-1.7365628E-1,2.6594004E-1,-2.2529544E-1],"categories":[],"categories_nodes":[],"categories_segments":[],"categories_sizes":[],"default_left":[0,0,0,0,0,0,0,0,0,0,0,0,0,0,0,0,0,0,0,0,0,0,0,0,0,0,0],"id":5,"left_children":[1,-1,3,5,7,-1,9,11,13,15,17,19,21,23,-1,-1,-1,-1,25,-1,-1,-1,-1,-1,-1,-1,-1],"loss_changes":[4.1123438E2,0E0,6.3265E1,1.7952423E1,6.9521933E0,0E0,2.7458372E0,1.4428922E0,6.6839695E-1,4.6130884E-1,1.3639109E0,3.2326045E0,8.838539E-1,6.1139107E-1,0E0,0E0,0E0,0E0,3.766954E0,0E0,0E0,0E0,0E0,0E0,0E0,0E0,0E0],"parents":[2147483647,0,0,2,2,3,3,4,4,6,6,7,7,8,8,9,9,10,10,11,11,12,12,13,13,18,18],"right_children":[2,-1,4,6,8,-1,10,12,14,16,18,20,22,24,-1,-1,-1,-1,26,-1,-1,-1,-1,-1,-1,-1,-1],"split_conditions":[1E0,-3.1704515E-1,3E0,3E0,1.19E2,3.4341678E-1,1.19E2,1E0,1.3333334E-1,1.03E2,2E0,4.2E1,2E0,1.97E2,-2.633825E-1,6.325477E-3,2.4039626E-1,-2.5689057E-1,1.99E2,2.4816291E-1,-2.3053727E-1,2.9050007E-1,2.3908769E-3,5.1217634E-2,-1.7365628E-1,2.6594004E-1,-2.2529544E-1],"split_indices":[3,0,1,2,0,0,0,7,6,0,7,0,2,0,0,0,0,0,0,0,0,0,0,0,0,0,0],"split_type":[0,0,0,0,0,0,0,0,0,0,0,0,0,0,0,0,0,0,0,0,0,0,0,0,0,0,0],"sum_hessian":[4.470346E2,2.3432936E2,2.1270525E2,1.8492117E2,2.7784077E1,1.7484619E2,1.007498E1,6.8719006E0,2.0912176E1,2.582191E0,7.492789E0,3.3077683E0,3.5641322E0,2.665772E0,1.8246405E1,1.1903367E0,1.3918542E0,3.7884536E0,3.704335E0,1.139951E0,2.1678174E0,2.165819E0,1.3983132E0,1.481154E0,1.1846179E0,1.5083357E0,2.1959994E0],"tree_param":{"num_deleted":"0","num_feature":"8","num_nodes":"27","size_leaf_vector":"1"}},{"base_weights":[-1.4132473E-1,-3.1163022E-1,8.1043315E-1,1.0213397E0,-4.600672E-1,3.2973123E-1,-1.7601693E-1,2.4497041E-1,-7.4598825E-1,2.5043523E-1,-2.1222048E-1,2.3872213E-1,-2.1016061E-2,-4.756678E-1,-2.8172433E-1,5.7149714E-1,-1.7502528E-1,-1.9245169E-1,3.051843E-1,-2.7114177E-1,1.5996824E-1,8.076216E-2,2.3522218E-1,-7.1400893E-3,1.7881626E-1],"categories":[],"categories_nodes":[],"categories_segments":[],"categories_sizes":[],"default_left":[0,0,0,0,0,0,0,0,0,0,0,0,0,0,0,0,0,0,0,0,0,0,0,0,0],"id":6,"left_children":[1,-1,3,5,7,-1,9,11,13,15,-1,-1,17,19,-1,21,-1,-1,23,-1,-1,-1,-1,-1,-1],"loss_changes":[2.9410275E2,0E0,4.5269066E1,1.3573273E1,5.119935E0,0E0,2.3583732E0,1.1622478E0,4.757557E-1,1.9607432E0,0E0,0E0,1.4602356E0,4.5379577E0,0E0,1.03399515E-1,0E0,0E0,4.708499E-1,0E0,0E0,0E0,0E0,0E0,0E0],"parents":[2147483647,0,0,2,2,3,3,4,4,6,6,7,7,8,8,9,9,12,12,13,13,15,15,18,18],"right_children":[2,-1,4,6,8,-1,10,12,14,16,-1,-1,18,20,-1,22,-1,-1,24,-1,-1,-1,-1,-1,-1],"split_conditions":[1E0,-3.1163022E-1,3E0,3E0,1.29E2,3.2973123E-1,5E-1,2.3333333E-1,1.97E2,1.99E2,-2.1222048E-1,2.3872213E-1,5.3333336E-1,2E0,-2.8172433E-1,2E0,-1.7502528E-1,-1.9245169E-1,8.3E1,-2.7114177E-1,1.5996824E-1,8.076216E-2,2.3522218E-1,-7.1400893E-3,1.7881626E-1],"split_indices":[3,0,1,2,0,0,6,6,0,0,0,0,6,7,0,7,0,0,0,0,0,0,0,0,0],"split_type":[0,0,0,0,0,0,0,0,0,0,0,0,0,0,0,0,0,0,0,0,0,0,0,0,0],"sum_hessian":[3.423373E2,1.7614922E2,1.6618808E2,1.4269623E2,2.3491846E1,1.3407083E2,8.625406E0,6.81942E0,1.6672426E1,5.078483E0,3.5469234E0,1.5722182E0,5.2472014E0,8.390107E0,8.282319E0,3.893849E0,1.1846343E0,1.4749644E0,3.7722373E0,5.963556E0,2.4265513E0,2.5434268E0,1.350422E0,2.201E0,1.5712371E0],"tree_param":{"num_deleted":"0","num_feature":"8","num_nodes":"25","size_leaf_vector":"1"}},{"base_weights":[-1.384207E-1,-3.0748212E-1,7.6341933E-1,9.789246E-1,-4.0357924E-1,3.2000786E-1,-1.4682746E-1,2.0617749E-1,-6.9372547E-1,4.949229E-1,-4.6228802E-1,2.0109382E-1,-1.9269641E-2,-4.2121187E-1,-2.6975664E-1,1.0881632E-2,2.1606512E-1,-2.330241E-1,-2.2058927E-2,-1.6645394E-1,2.5449628E-1,-2.5745195E-1,4.1426456E-1,2.1070425E-1,-1.926412E-1,-1.4668168E-2,1.4118816E-1,4.15003E-2,1.5526207E-1],"categories":[],"categories_nodes":[],"categories_segments":[],"categories_sizes":[],"default_left":[0,0,0,0,0,0,0,0,0,0,0,0,0,0,0,0,0,0,0,0,0,0,0,0,0,0,0,0,0],"id":7,"left_children":[1,-1,3,5,7,-1,9,11,13,15,17,-1,19,21,-1,-1,-1,-1,23,-1,25,-1,27,-1,-1,-1,-1,-1,-1],"loss_changes":[2.1095059E2,0E0,3.331179E1,1.1101685E1,3.877856E0,0E0,2.0287077E0,8.057896E-1,4.3498278E-1,3.2654798E-1,8.7960804E-1,0E0,1.0315119E0,3.3229704E0,0E0,0E0,0E0,0E0,2.1257339E0,0E0,3.314425E-1,0E0,2.717024E-2,0E0,0E0,0E0,0E0,0E0,0E0],"parents":[2147483647,0,0,2,2,3,3,4,4,6,6,7,7,8,8,9,9,10,10,12,12,13,13,18,18,20,20,22,22],"right_children":[2,-1,4,6,8,-1,10,12,14,16,18,-1,20,22,-1,-1,-1,-1,24,-1,26,-1,28,-1,-1,-1,-1,-1,-1],"split_conditions":[1E0,-3.0748212E-1,3E0,3E0,1.29E2,3.2000786E-1,1.19E2,2.3333333E-1,1.97E2,1.03E2,2E0,2.0109382E-1,5.3333336E-1,2E0,-2.6975664E-1,1.0881632E-2,2.1606512E-1,-2.330241E-1,1.99E2,-1.6645394E-1,7.8E1,-2.5745195E-1,1E0,2.1070425E-1,-1.926412E-1,-1.4668168E-2,1.4118816E-1,4.15003E-2,1.5526207E-1],"split_indices":[3,0,1,2,0,0,0,6,0,0,7,0,6,7,0,0,0,0,0,0,0,0,4,0,0,0,0,0,0],"split_type":[0,0,0,0,0,0,0,0,0,0,0,0,0,0,0,0,0,0,0,0,0,0,0,0,0,0,0,0,0],"sum_hessian":[2.6187482E2,1.3199028E2,1.2988454E2,1.09774124E2,2.0110413E1,1.0188335E2,7.8907795E0,6.5772977E0,1.3533115E1,2.4130182E0,5.4777613E0,1.5052116E0,5.0720863E0,7.128449E0,6.4046664E0,1.1772952E0,1.2357231E0,2.7494168E0,2.7283447E0,1.3683743E0,3.703712E0,4.6626678E0,2.465781E0,1.1971265E0,1.531218E0,1.8627223E0,1.8409896E0,1.3086957E0,1.1570854E0],"tree_param":{"num_deleted":"0","num_feature":"8","num_nodes":"29","size_leaf_vector":"1"}},{"base_weights":[-1.3536076E-1,-3.0413312E-1,7.2198313E-1,9.4703144E-1,-3.495467E-1,3.1274623E-1,-1.22065805E-1,1.7047867E-1,-6.370522E-1,4.3548423E-1,-4.2736086E-1,2.1531744E-1,-2.9411746E-2,-3.6273682E-1,-2.5738108E-1,9.102136E-3,1.9486932E-1,-2.1683927E-1,-1.4553525E-2,-2.163606E-1,4.1232464E-1,-2.4347888E-1,3.4694976E-1,1.9037288E-1,-1.7750974E-1,2.2541837E-1,2.9143622E-2,3.035901E-2,1.3008454E-1],"categories":[],"categories_nodes":[],"categories_segments":[],"categories_sizes":[],"default_left":[0,0,0,0,0,0,0,0,0,0,0,0,0,0,0,0,0,0,0,0,0,0,0,0,0,0,0,0,0],"id":8,"left_children":[1,-1,3,5,7,-1,9,11,13,15,17,-1,19,21,-1,-1,-1,-1,23,-1,25,-1,27,-1,-1,-1,-1,-1,-1],"loss_changes":[1.52112E2,0E0,2.5002232E1,8.783279E0,2.872767E0,0E0,1.5219235E0,8.2744247E-1,4.2298365E-1,2.6408267E-1,6.694852E-1,0E0,2.2408376E0,2.5551572E0,0E0,0E0,0E0,0E0,1.6291804E0,0E0,4.0979087E-1,0E0,2.9934049E-2,0E0,0E0,0E0,0E0,0E0,0E0],"parents":[2147483647,0,0,2,2,3,3,4,4,6,6,7,7,8,8,9,9,10,10,12,12,13,13,18,18,20,20,22,22],"right_children":[2,-1,4,6,8,-1,10,12,14,16,18,-1,20,22,-1,-1,-1,-1,24,-1,26,-1,28,-1,-1,-1,-1,-1,-1],"split_conditions":[1E0,-3.0413312E-1,3E0,3E0,1.29E2,3.1274623E-1,1.19E2,4.2E1,1.97E2,1.03E2,2E0,2.1531744E-1,1E0,2E0,-2.5738108E-1,9.102136E-3,1.9486932E-1,-2.1683927E-1,1.99E2,-2.163606E-1,2.3333333E-1,-2.4347888E-1,3.6666667E-1,1.9037288E-1,-1.7750974E-1,2.2541837E-1,2.9143622E-2,3.035901E-2,1.3008454E-1],"split_indices":[3,0,1,2,0,0,0,0,0,0,7,0,7,7,0,0,0,0,0,0,6,0,6,0,0,0,0,0,0],"split_type":[0,0,0,0,0,0,0,0,0,0,0,0,0,0,0,0,0,0,0,0,0,0,0,0,0,0,0,0,0],"sum_hessian":[2.0000797E2,9.86998E1,1.0130817E2,8.382003E1,1.7488136E1,7.697233E1,6.847703E0,6.371226E0,1.1116911E1,2.271996E0,4.575707E0,1.0114785E0,5.3597474E0,6.1372724E0,4.979638E0,1.1802028E0,1.0917933E0,2.2293098E0,2.3463972E0,1.8421533E0,3.517594E0,3.671525E0,2.4657476E0,1.0574965E0,1.2889006E0,1.0278304E0,2.4897635E0,1.2079865E0,1.2577611E0],"tree_param":{"num_deleted":"0","num_feature":"8","num_nodes":"29","size_leaf_vector":"1"}},{"base_weights":[-1.3188045E-1,-3.012365E-1,6.834073E-1,9.177993E-1,-3.008724E-1,3.0699643E-1,-1.0119261E-1,-5.850332E-2,-2.7564362E-1,3.248465E-1,-5.005113E-1,1.7587748E-1,-2.1872348E-1,1.9142698E-1,-2.5230654E-2,-3.43098E-2,-1.9457571E-1,-8.781837E-2,2.801247E-1,1.2496848E-1,-2.3864736E-1],"categories":[],"categories_nodes":[],"categories_segments":[],"categories_sizes":[],"default_left":[0,0,0,0,0,0,0,0,0,0,0,0,0,0,0,0,0,0,0,0,0],"id":9,"left_children":[1,-1,3,5,7,-1,9,11,-1,13,15,17,-1,-1,-1,-1,-1,19,-1,-1,-1],"loss_changes":[1.1007622E2,0E0,1.8756683E1,7.0867386E0,2.3664923E0,0E0,1.3541869E0,2.1203907E0,0E0,5.654459E-1,1.5505576E-1,2.1200504E0,0E0,0E0,0E0,0E0,0E0,3.3580656E0,0E0,0E0,0E0],"parents":[2147483647,0,0,2,2,3,3,4,4,6,6,7,7,9,9,10,10,11,11,17,17],"right_children":[2,-1,4,6,8,-1,10,12,-1,14,16,18,-1,-1,-1,-1,-1,20,-1,-1,-1],"split_conditions":[1E0,-3.012365E-1,3E0,3E0,3E0,3.0699643E-1,3.6666667E-1,1.97E2,-2.7564362E-1,1.19E2,1.52E2,2E0,-2.1872348E-1,1.9142698E-1,-2.5230654E-2,-3.43098E-2,-1.9457571E-1,1.19E2,2.801247E-1,1.2496848E-1,-2.3864736E-1],"split_indices":[3,0,1,2,2,0,6,0,0,0,0,7,0,0,0,0,0,0,0,0,0],"split_type":[0,0,0,0,0,0,0,0,0,0,0,0,0,0,0,0,0,0,0,0,0],"sum_hessian":[1.5282611E2,7.3722244E1,7.910387E1,6.3944054E1,1.5159809E1,5.7939823E1,6.004232E0,1.1675216E1,3.4845936E0,2.9951544E0,3.0090773E0,9.198024E0,2.477192E0,1.3787513E0,1.6164031E0,1.325312E0,1.6837653E0,7.479657E0,1.718367E0,4.6072755E0,2.8723814E0],"tree_param":{"num_deleted":"0","num_feature":"8","num_nodes":"21","size_leaf_vector":"1"}},{"base_weights":[-1.3027754E-1,-2.985151E-1,6.361498E-1,8.821211E-1,-2.753284E-1,3.0210382E-1,-8.741609E-2,-5.8077194E-2,-2.5646514E-1,2.2467728E-1,-1.5757929E-1,1.4677945E-1,-2.0404868E-1,4.1969028E-1,-6.45558E-2,-8.87384E-2,2.4709062E-1,1.6348873E-1,2.9169926E-2,9.4953805E-2,-2.2240509E-1],"categories":[],"categories_nodes":[],"categories_segments":[],"categories_sizes":[],"default_left":[0,0,0,0,0,0,0,0,0,0,0,0,0,0,0,0,0,0,0,0,0],"id":10,"left_children":[1,-1,3,5,7,-1,9,11,-1,13,-1,15,-1,17,-1,19,-1,-1,-1,-1,-1],"loss_changes":[7.914141E1,0E0,1.44585285E1,6.162979E0,1.7428948E0,0E0,1.0260952E0,1.5561976E0,0E0,4.8319954E-1,0E0,1.5746608E0,0E0,8.888984E-2,0E0,2.32151E0,0E0,0E0,0E0,0E0,0E0],"parents":[2147483647,0,0,2,2,3,3,4,4,6,6,7,7,9,9,11,11,13,13,15,15],"right_children":[2,-1,4,6,8,-1,10,12,-1,14,-1,16,-1,18,-1,20,-1,-1,-1,-1,-1],"split_conditions":[1E0,-2.985151E-1,3E0,3E0,3E0,3.0210382E-1,5E-1,1.97E2,-2.5646514E-1,1.79E2,-1.5757929E-1,2E0,-2.0404868E-1,1.19E2,-6.45558E-2,1.19E2,2.4709062E-1,1.6348873E-1,2.9169926E-2,9.4953805E-2,-2.2240509E-1],"split_indices":[3,0,1,2,2,0,6,0,0,0,0,7,0,0,0,0,0,0,0,0,0],"split_type":[0,0,0,0,0,0,0,0,0,0,0,0,0,0,0,0,0,0,0,0,0],"sum_hessian":[1.17452194E2,5.504533E1,6.2406864E1,4.9170055E1,1.323681E1,4.352473E1,5.6453238E0,1.0427998E1,2.8088121E0,3.5802333E0,2.0650904E0,8.419465E0,2.008532E0,2.5122786E0,1.0679547E0,6.8906875E0,1.5287776E0,1.3123934E0,1.1998851E0,4.568686E0,2.3220015E0],"tree_param":{"num_deleted":"0","num_feature":"8","num_nodes":"21","size_leaf_vector":"1"}},{"base_weights":[-1.2814395E-1,-2.957289E-1,5.8563596E-1,8.438997E-1,-2.5269422E-1,2.9757872E-1,-6.995883E-2,-5.8603637E-2,-2.376874E-1,1.604199E-1,-1.7090388E-1,1.20828636E-1,-1.8961307E-1,1.17513135E-1,-8.957928E-2,-8.9318186E-2,2.2098665E-1,7.1891695E-2,-2.064959E-1],"categories":[],"categories_nodes":[],"categories_segments":[],"categories_sizes":[],"default_left":[0,0,0,0,0,0,0,0,0,0,0,0,0,0,0,0,0,0,0],"id":11,"left_children":[1,-1,3,5,7,-1,9,11,-1,13,-1,15,-1,-1,-1,17,-1,-1,-1],"loss_changes":[5.683002E1,0E0,1.1207609E1,5.3521194E0,1.2866812E0,0E0,8.256429E-1,1.1507323E0,0E0,6.6326E-1,0E0,1.2036027E0,0E0,0E0,0E0,1.6323954E0,0E0,0E0,0E0],"parents":[2147483647,0,0,2,2,3,3,4,4,6,6,7,7,9,9,11,11,15,15],"right_children":[2,-1,4,6,8,-1,10,12,-1,14,-1,16,-1,-1,-1,18,-1,-1,-1],"split_conditions":[1E0,-2.957289E-1,3E0,3E0,3E0,2.9757872E-1,1.99E2,1.97E2,-2.376874E-1,5E-1,-1.7090388E-1,2E0,-1.8961307E-1,1.17513135E-1,-8.957928E-2,1.19E2,2.2098665E-1,7.1891695E-2,-2.064959E-1],"split_indices":[3,0,1,2,2,0,0,0,0,6,0,7,0,0,0,0,0,0,0],"split_type":[0,0,0,0,0,0,0,0,0,0,0,0,0,0,0,0,0,0,0],"sum_hessian":[9.089352E1,4.1113678E1,4.9779842E1,3.8050888E1,1.1728952E1,3.2672997E1,5.3778915E0,9.441496E0,2.2874565E0,4.145661E0,1.2322305E0,7.7924805E0,1.6490153E0,2.8541431E0,1.2915177E0,6.4472384E0,1.3452421E0,4.5489826E0,1.8982558E0],"tree_param":{"num_deleted":"0","num_feature":"8","num_nodes":"19","size_leaf_vector":"1"}},{"base_weights":[-1.2753929E-1,-2.9265344E-1,5.289951E-1,7.9863757E-1,-2.3259269E-1,2.930239E-1,-7.7022284E-2,-5.9496433E-2,-2.1957463E-1,1.1997571E-1,-1.5772045E-1,9.81851E-2,-1.756893E-1,-8.482073E-2,2.9909995E-1,-3.2239372E-1,3.6389184E-1,1.49509E-1,2.14959E-4,8.9264214E-2,-2.079314E-1,2.3659752E-1,-1.5133151E-2],"categories":[],"categories_nodes":[],"categories_segments":[],"categories_sizes":[],"default_left":[0,0,0,0,0,0,0,0,0,0,0,0,0,0,0,0,0,0,0,0,0,0,0],"id":12,"left_children":[1,-1,3,5,7,-1,9,11,-1,13,-1,15,-1,-1,17,19,21,-1,-1,-1,-1,-1,-1],"loss_changes":[4.0560413E1,0E0,8.644176E0,4.854643E0,9.542463E-1,0E0,6.0286015E-1,8.590002E-1,0E0,4.494028E-1,0E0,1.0437006E0,0E0,0E0,2.3667046E-1,1.0656959E0,1.0165602E0,0E0,0E0,0E0,0E0,0E0,0E0],"parents":[2147483647,0,0,2,2,3,3,4,4,6,6,7,7,9,9,11,11,14,14,15,15,16,16],"right_children":[2,-1,4,6,8,-1,10,12,-1,14,-1,16,-1,-1,18,20,22,-1,-1,-1,-1,-1,-1],"split_conditions":[1E0,-2.9265344E-1,3E0,3E0,3E0,2.930239E-1,1.99E2,1.97E2,-2.1957463E-1,1E0,-1.5772045E-1,1E0,-1.756893E-1,-8.482073E-2,1.19E2,4.9E1,1.19E2,1.49509E-1,2.14959E-4,8.9264214E-2,-2.079314E-1,2.3659752E-1,-1.5133151E-2],"split_indices":[3,0,1,2,2,0,0,0,0,1,0,7,0,0,0,0,0,0,0,0,0,0,0],"split_type":[0,0,0,0,0,0,0,0,0,0,0,0,0,0,0,0,0,0,0,0,0,0,0],"sum_hessian":[7.0928734E1,3.0739763E1,4.018897E1,2.964457E1,1.0544399E1,2.4538094E1,5.106476E0,8.661084E0,1.8833153E0,4.057664E0,1.0488118E0,7.2897453E0,1.371339E0,1.0711176E0,2.9865465E0,2.739745E0,4.55E0,1.3888487E0,1.5976979E0,1.0990913E0,1.6406537E0,1.8006206E0,2.7493796E0],"tree_param":{"num_deleted":"0","num_feature":"8","num_nodes":"23","size_leaf_vector":"1"}},{"base_weights":[-1.2522753E-1,-2.8906748E-1,4.745616E-1,7.5049675E-1,-2.1235454E-1,2.8809595E-1,-7.319791E-2,-5.502046E-2,-2.0237829E-1,1.4103168E-1,-1.1674125E-1,8.759796E-2,-1.625022E-1,1.0674252E-1,-5.7680253E-2,-1.2042315E-1,2.0086817E-1,-6.4129524E-2,3.817731E-2,4.9527988E-2,-1.9002514E-1],"categories":[],"categories_nodes":[],"categories_segments":[],"categories_sizes":[],"default_left":[0,0,0,0,0,0,0,0,0,0,0,0,0,0,0,0,0,0,0,0,0],"id":13,"left_children":[1,-1,3,5,7,-1,9,11,-1,13,-1,15,-1,-1,17,19,-1,-1,-1,-1,-1],"loss_changes":[2.9023802E1,0E0,6.5636954E0,4.274476E0,7.2377694E-1,0E0,4.5202816E-1,6.6477454E-1,0E0,2.0108315E-1,0E0,1.0175654E0,0E0,0E0,1.1547636E-1,1.0637919E0,0E0,0E0,0E0,0E0,0E0],"parents":[2147483647,0,0,2,2,3,3,4,4,6,6,7,7,9,9,11,11,14,14,15,15],"right_children":[2,-1,4,6,8,-1,10,12,-1,14,-1,16,-1,-1,18,20,-1,-1,-1,-1,-1],"split_conditions":[1E0,-2.8906748E-1,3E0,3E0,3E0,2.8809595E-1,5E-1,1.97E2,-2.0237829E-1,1.19E2,-1.1674125E-1,2E0,-1.625022E-1,1.0674252E-1,4E0,1.19E2,2.0086817E-1,-6.4129524E-2,3.817731E-2,4.9527988E-2,-1.9002514E-1],"split_indices":[3,0,1,2,2,0,6,0,0,0,0,7,0,0,2,0,0,0,0,0,0],"split_type":[0,0,0,0,0,0,0,0,0,0,0,0,0,0,0,0,0,0,0,0,0],"sum_hessian":[5.5812458E1,2.3024462E1,3.2787994E1,2.3325535E1,9.46246E0,1.845783E1,4.867705E0,7.894435E0,1.568025E0,3.230683E0,1.637022E0,6.739392E0,1.1550432E0,1.1726532E0,2.05803E0,5.548992E0,1.1903996E0,1.0315461E0,1.0264837E0,4.000574E0,1.548418E0],"tree_param":{"num_deleted":"0","num_feature":"8","num_nodes":"21","size_leaf_vector":"1"}},{"base_weights":[-1.22062795E-1,-2.847472E-1,4.176893E-1,6.990569E-1,-1.980155E-1,2.8248718E-1,-5.9854526E-2,-5.6287915E-2,-1.8628843E-1,6.625161E-2,-2.5352475E-1,-3.1665292E-1,1.1080209E-1,-1.7772734E-1,4.981662E-2,6.8768956E-2,-1.947646E-1,2.1017501E-1,-2.5333276E-1,-1.8865566E-1,5.5864967E-2],"categories":[],"categories_nodes":[],"categories_segments":[],"categories_sizes":[],"default_left":[0,0,0,0,0,0,0,0,0,0,0,0,0,0,0,0,0,0,0,0,0],"id":14,"left_children":[1,-1,3,5,7,-1,9,11,-1,-1,13,15,17,-1,-1,-1,-1,-1,19,-1,-1],"loss_changes":[2.0729284E1,0E0,5.0332522E0,3.666916E0,5.429816E-1,0E0,3.653485E-1,3.970932E-1,0E0,0E0,6.43399E-1,7.8637314E-1,1.4250752E0,0E0,0E0,0E0,0E0,0E0,8.3117175E-1,0E0,0E0],"parents":[2147483647,0,0,2,2,3,3,4,4,6,6,7,7,10,10,11,11,12,12,18,18],"right_children":[2,-1,4,6,8,-1,10,12,-1,-1,14,16,18,-1,-1,-1,-1,-1,20,-1,-1],"split_conditions":[1E0,-2.847472E-1,3E0,3E0,3E0,2.8248718E-1,1.19E2,1E0,-1.8628843E-1,6.625161E-2,2E0,4.9E1,1.19E2,-1.7772734E-1,4.981662E-2,6.8768956E-2,-1.947646E-1,2.1017501E-1,2E0,-1.8865566E-1,5.5864967E-2],"split_indices":[3,0,1,2,2,0,0,7,0,0,7,0,0,0,0,0,0,0,7,0,0],"split_type":[0,0,0,0,0,0,0,0,0,0,0,0,0,0,0,0,0,0,0,0,0],"sum_hessian":[4.4545807E1,1.7291105E1,2.7254704E1,1.8613323E1,8.641379E0,1.3922568E1,4.6907554E0,7.3211694E0,1.3202106E0,1.8578396E0,2.8329158E0,2.5119164E0,4.8092527E0,1.3392459E0,1.49367E0,1.0685942E0,1.4433223E0,1.4831158E0,3.3261368E0,1.5614613E0,1.7646756E0],"tree_param":{"num_deleted":"0","num_feature":"8","num_nodes":"21","size_leaf_vector":"1"}},{"base_weights":[-1.1925682E-1,-2.7946988E-1,3.6583084E-1,6.438575E-1,-1.8442827E-1,2.7592432E-1,-5.8279283E-2,-3.3773262E-2,-1.7388842E-1,1.0189674E-1,-1.147489E-1,-1.8480113E-1,1.1405786E-1,2.5092924E-1,-5.7793137E-2,2.2491718E-2,-1.6838108E-1,2.0643655E-2,9.246624E-2,-8.462695E-2,1.1908446E-1],"categories":[],"categories_nodes":[],"categories_segments":[],"categories_sizes":[],"default_left":[0,0,0,0,0,0,0,0,0,0,0,0,0,0,0,0,0,0,0,0,0],"id":15,"left_children":[1,-1,3,5,7,-1,9,11,-1,13,-1,15,-1,17,-1,19,-1,-1,-1,-1,-1],"loss_changes":[1.4832292E1,0E0,3.7512794E0,3.1523666E0,5.0123453E-1,0E0,3.22154E-1,5.325993E-1,0E0,2.4321273E-1,0E0,4.8797518E-1,0E0,1.4079228E-2,0E0,6.6965544E-1,0E0,0E0,0E0,0E0,0E0],"parents":[2147483647,0,0,2,2,3,3,4,4,6,6,7,7,9,9,11,11,13,13,15,15],"right_children":[2,-1,4,6,8,-1,10,12,-1,14,-1,16,-1,18,-1,20,-1,-1,-1,-1,-1],"split_conditions":[1E0,-2.7946988E-1,3E0,3E0,1.97E2,2.7592432E-1,1.97E2,2E0,-1.7388842E-1,5E-1,-1.147489E-1,1.19E2,1.1405786E-1,1.6666667E-1,-5.7793137E-2,1E0,-1.6838108E-1,2.0643655E-2,9.246624E-2,-8.462695E-2,1.1908446E-1],"split_indices":[3,0,1,2,0,0,0,7,0,6,0,0,0,6,0,7,0,0,0,0,0],"split_type":[0,0,0,0,0,0,0,0,0,0,0,0,0,0,0,0,0,0,0,0,0],"sum_hessian":[3.57766E1,1.3032486E1,2.2744114E1,1.4996705E1,7.747409E0,1.0543806E1,4.4528985E0,6.395011E0,1.3523979E0,3.439409E0,1.0134896E0,5.091174E0,1.3038368E0,2.382148E0,1.0572609E0,3.88968E0,1.2014943E0,1.0967891E0,1.285359E0,2.2809951E0,1.6086845E0],"tree_param":{"num_deleted":"0","num_feature":"8","num_nodes":"21","size_leaf_vector":"1"}},{"base_weights":[-1.1387349E-1,-2.7302757E-1,3.1338346E-1,5.8247894E-1,-1.6578719E-1,2.6818365E-1,-5.3722728E-2,-1.9625252E-2,-1.7284581E-1,5.3246733E-2,-2.2157143E-1,-2.289234E-1,1.2339016E-1,-1.6404495E-1,4.7438297E-2,7.111578E-2,-1.718983E-1,1.8141831E-1,-1.9267452E-1,-1.6154385E-1,4.998856E-2],"categories":[],"categories_nodes":[],"categories_segments":[],"categories_sizes":[],"default_left":[0,0,0,0,0,0,0,0,0,0,0,0,0,0,0,0,0,0,0,0,0],"id":16,"left_children":[1,-1,3,5,7,-1,9,11,-1,-1,13,15,17,-1,-1,-1,-1,-1,19,-1,-1],"loss_changes":[1.0624321E1,0E0,2.7428074E0,2.6961207E0,4.7806147E-1,0E0,2.4639039E-1,2.3931445E-1,0E0,0E0,5.231599E-1,6.5090287E-1,8.526548E-1,0E0,0E0,0E0,0E0,0E0,5.468626E-1,0E0,0E0],"parents":[2147483647,0,0,2,2,3,3,4,4,6,6,7,7,10,10,11,11,12,12,18,18],"right_children":[2,-1,4,6,8,-1,10,12,-1,-1,14,16,18,-1,-1,-1,-1,-1,20,-1,-1],"split_conditions":[1E0,-2.7302757E-1,3E0,3E0,3E0,2.6818365E-1,1.19E2,1E0,-1.7284581E-1,5.3246733E-2,2E0,4.9E1,1.19E2,-1.6404495E-1,4.7438297E-2,7.111578E-2,-1.718983E-1,1.8141831E-1,2E0,-1.6154385E-1,4.998856E-2],"split_indices":[3,0,1,2,2,0,0,7,0,0,7,0,0,0,0,0,0,0,7,0,0],"split_type":[0,0,0,0,0,0,0,0,0,0,0,0,0,0,0,0,0,0,0,0,0],"sum_hessian":[2.9392183E1,9.869574E0,1.952261E1,1.2363721E1,7.158889E0,8.028207E0,4.335514E0,6.051367E0,1.1075219E0,1.7994012E0,2.5361128E0,2.2126052E0,3.8387618E0,1.1289439E0,1.407169E0,1.0719274E0,1.1406777E0,1.1595579E0,2.679204E0,1.1111343E0,1.5680696E0],"tree_param":{"num_deleted":"0","num_feature":"8","num_nodes":"21","size_leaf_vector":"1"}},{"base_weights":[-1.10745296E-1,-2.652518E-1,2.6527697E-1,5.2232593E-1,-1.564806E-1,2.5911677E-1,-5.380406E-2,-1.1406684E-2,-1.5792109E-1,1.1006847E-1,-8.842422E-2,-1.5457349E-1,1.0166338E-1,-1.7800279E-2,8.0093175E-2,6.0581263E-2,-2.9280156E-1,-1.4231496E-1,-2.5478194E-2],"categories":[],"categories_nodes":[],"categories_segments":[],"categories_sizes":[],"default_left":[0,0,0,0,0,0,0,0,0,0,0,0,0,0,0,0,0,0,0],"id":17,"left_children":[1,-1,3,5,7,-1,9,11,-1,13,-1,15,-1,-1,-1,-1,17,-1,-1],"loss_changes":[7.6035366E0,0E0,2.0134711E0,2.269352E0,3.9739984E-1,0E0,2.3564537E-1,3.744173E-1,0E0,1.1661497E-1,0E0,3.176103E-1,0E0,0E0,0E0,0E0,1.17788404E-1,0E0,0E0],"parents":[2147483647,0,0,2,2,3,3,4,4,6,6,7,7,9,9,11,11,16,16],"right_children":[2,-1,4,6,8,-1,10,12,-1,14,-1,16,-1,-1,-1,-1,18,-1,-1],"split_conditions":[1E0,-2.652518E-1,3E0,3E0,1.97E2,2.5911677E-1,5E-1,2E0,-1.5792109E-1,2E0,-8.842422E-2,4.9E1,1.0166338E-1,-1.7800279E-2,8.0093175E-2,6.0581263E-2,8.3E1,-1.4231496E-1,-2.5478194E-2],"split_indices":[3,0,1,2,0,0,6,7,0,7,0,0,0,0,0,0,0,0,0],"split_type":[0,0,0,0,0,0,0,0,0,0,0,0,0,0,0,0,0,0,0],"sum_hessian":[2.4338139E1,7.519713E0,1.6818424E1,1.0301505E1,6.5169196E0,6.1550407E0,4.1464643E0,5.4215627E0,1.0953567E0,2.791239E0,1.3552256E0,4.2452025E0,1.1763605E0,1.641206E0,1.150033E0,1.0573181E0,3.187884E0,1.0172402E0,2.170644E0],"tree_param":{"num_deleted":"0","num_feature":"8","num_nodes":"19","size_leaf_vector":"1"}},{"base_weights":[-1.0234935E-1,-2.560466E-1,2.2119178E-1,4.3184727E-1,-2.0304188E-1,2.4868037E-1,-1.1481515E-3,3.2619152E-2,-3.8789266E-1,1.064014E-1,-7.602984E-2,7.1050666E-2,-4.4035222E-2,-3.6782935E-2,-1.5397407E-1,-5.9956364E-2,3.557097E-1,1.6907866E-1,-2.27345E-3],"categories":[],"categories_nodes":[],"categories_segments":[],"categories_sizes":[],"default_left":[0,0,0,0,0,0,0,0,0,0,0,0,0,0,0,0,0,0,0],"id":18,"left_children":[1,-1,3,5,7,-1,9,11,13,15,-1,-1,-1,-1,-1,-1,17,-1,-1],"loss_changes":[5.4895735E0,0E0,1.5210721E0,1.8986728E0,2.7411366E-1,0E0,1.9732188E-1,1.6522214E-1,5.1505506E-2,4.609652E-1,0E0,0E0,0E0,0E0,0E0,0E0,2.440227E-1,0E0,0E0],"parents":[2147483647,0,0,2,2,3,3,4,4,6,6,7,7,8,8,9,9,16,16],"right_children":[2,-1,4,6,8,-1,10,12,14,16,-1,-1,-1,-1,-1,-1,18,-1,-1],"split_conditions":[1E0,-2.560466E-1,3E0,3E0,3.6666667E-1,2.4868037E-1,1.79E2,1.19E2,1.52E2,1E0,-7.602984E-2,7.1050666E-2,-4.4035222E-2,-3.6782935E-2,-1.5397407E-1,-5.9956364E-2,1.19E2,1.6907866E-1,-2.27345E-3],"split_indices":[3,0,2,1,6,0,0,0,0,7,0,0,0,0,0,0,0,0,0],"split_type":[0,0,0,0,0,0,0,0,0,0,0,0,0,0,0,0,0,0,0],"sum_hessian":[2.0811752E1,5.7724237E0,1.5039329E1,1.0037305E1,5.002024E0,4.758764E0,5.2785406E0,2.560831E0,2.441193E0,4.1062746E0,1.1722662E0,1.0478845E0,1.5129466E0,1.4181393E0,1.0230538E0,1.9316975E0,2.174577E0,1.0324175E0,1.1421593E0],"tree_param":{"num_deleted":"0","num_feature":"8","num_nodes":"19","size_leaf_vector":"1"}},{"base_weights":[-9.153802E-2,-2.4542245E-1,1.8742879E-1,3.0698976E-1,-1.2007376E-1,5.1721215E-1,-6.4585055E-3,2.3140171E-1,1.3736285E-1,-1.4346783E-1,9.419286E-2,-6.079538E-2,3.1066436E-1,6.0488537E-2,-2.8922433E-1,1.11346394E-1,2.742339E-2,-3.3633176E-2,-1.1961258E-1],"categories":[],"categories_nodes":[],"categories_segments":[],"categories_sizes":[],"default_left":[0,0,0,0,0,0,0,0,0,0,0,0,0,0,0,0,0,0,0],"id":19,"left_children":[1,-1,3,5,-1,7,9,-1,11,13,-1,-1,15,-1,17,-1,-1,-1,-1],"loss_changes":[4.014046E0,0E0,1.1471074E0,8.387939E-1,0E0,6.2780404E-1,3.1186047E-1,0E0,3.1419122E-1,3.0697665E-1,0E0,0E0,8.764446E-3,0E0,3.0661583E-2,0E0,0E0,0E0,0E0],"parents":[2147483647,0,0,2,2,3,3,5,5,6,6,8,8,9,9,12,12,14,14],"right_children":[2,-1,4,6,-1,8,10,-1,12,14,-1,-1,16,-1,18,-1,-1,-1,-1],"split_conditions":[1E0,-2.4542245E-1,2.01E2,3E0,-1.2007376E-1,3E0,2E0,2.3140171E-1,1.03E2,4.9E1,9.419286E-2,-6.079538E-2,1.52E2,6.0488537E-2,1.16E2,1.11346394E-1,2.742339E-2,-3.3633176E-2,-1.1961258E-1],"split_indices":[3,0,0,1,0,2,7,0,0,0,0,0,0,0,0,0,0,0,0],"split_type":[0,0,0,0,0,0,0,0,0,0,0,0,0,0,0,0,0,0,0],"sum_hessian":[1.8048363E1,4.4711785E0,1.3577184E1,1.1678783E1,1.8984005E0,6.601345E0,5.0774384E0,3.3377068E0,3.2636383E0,3.9435518E0,1.1338863E0,1.0446665E0,2.2189717E0,1.0571935E0,2.8863585E0,1.1961491E0,1.0228227E0,1.8758178E0,1.0105406E0],"tree_param":{"num_deleted":"0","num_feature":"8","num_nodes":"19","size_leaf_vector":"1"}},{"base_weights":[-7.755916E-2,-2.3351918E-1,1.6014788E-1,3.5938647E-1,-1.8158151E-1,2.2688387E-1,2.1050137E-2,3.1633474E-2,-1.06667735E-1,-5.3166147E-2,1.5809192E-1,5.439811E-2,-3.2233927E-2,1.4076628E-1,-4.3211363E-2],"categories":[],"categories_nodes":[],"categories_segments":[],"categories_sizes":[],"default_left":[0,0,0,0,0,0,0,0,0,0,0,0,0,0,0],"id":20,"left_children":[1,-1,3,5,7,-1,9,11,-1,-1,13,-1,-1,-1,-1],"loss_changes":[2.9721928E0,0E0,9.9074125E-1,1.1821975E0,2.2159693E-1,0E0,1.8683614E-1,9.164875E-2,0E0,0E0,4.4215572E-1,0E0,0E0,0E0,0E0],"parents":[2147483647,0,0,2,2,3,3,4,4,6,6,7,7,10,10],"right_children":[2,-1,4,6,8,-1,10,12,-1,-1,14,-1,-1,-1,-1],"split_conditions":[1E0,-2.3351918E-1,3E0,3E0,3.6666667E-1,2.2688387E-1,1E0,1.26E2,-1.06667735E-1,-5.3166147E-2,1.29E2,5.439811E-2,-3.2233927E-2,1.4076628E-1,-4.3211363E-2],"split_indices":[3,0,2,1,6,0,7,0,0,0,0,0,0,0,0],"split_type":[0,0,0,0,0,0,0,0,0,0,0,0,0,0,0],"sum_hessian":[1.609264E1,3.4997182E0,1.2592922E1,7.9223075E0,4.670615E0,3.077218E0,4.845089E0,2.466283E0,2.204332E0,1.8603574E0,2.9847317E0,1.0415198E0,1.4247632E0,1.198002E0,1.7867298E0],"tree_param":{"num_deleted":"0","num_feature":"8","num_nodes":"15","size_leaf_vector":"1"}},{"base_weights":[-6.401926E-2,-2.2060487E-1,1.4072503E-1,2.473359E-1,-1.08478196E-1,4.3281826E-1,2.2418725E-3,2.03844E-1,1.4556466E-1,-1.24410205E-1,8.508248E-2,-5.2486457E-2,9.107957E-2,5.940238E-2,-2.7329627E-1,-1.00114234E-1,-3.0742692E-2],"categories":[],"categories_nodes":[],"categories_segments":[],"categories_sizes":[],"default_left":[0,0,0,0,0,0,0,0,0,0,0,0,0,0,0,0,0],"id":21,"left_children":[1,-1,3,5,-1,7,9,-1,11,13,-1,-1,-1,-1,15,-1,-1],"loss_changes":[2.227347E0,0E0,7.684816E-1,5.0154203E-1,0E0,3.4654462E-1,2.4079184E-1,0E0,2.6469773E-1,2.7838334E-1,0E0,0E0,0E0,0E0,3.1236112E-3,0E0,0E0],"parents":[2147483647,0,0,2,2,3,3,5,5,6,6,8,8,9,9,14,14],"right_children":[2,-1,4,6,-1,8,10,-1,12,14,-1,-1,-1,-1,16,-1,-1],"split_conditions":[1E0,-2.2060487E-1,1.99E2,3E0,-1.08478196E-1,3E0,2E0,2.03844E-1,1.03E2,4.9E1,8.508248E-2,-5.2486457E-2,9.107957E-2,5.940238E-2,1E0,-1.00114234E-1,-3.0742692E-2],"split_indices":[3,0,0,1,0,2,7,0,0,0,0,0,0,0,2,0,0],"split_type":[0,0,0,0,0,0,0,0,0,0,0,0,0,0,0,0,0],"sum_hessian":[1.4451791E1,2.7718148E0,1.16799755E1,1.0053797E1,1.6261796E0,5.28687E0,4.766927E0,2.1097841E0,3.1770859E0,3.671915E0,1.0950116E0,1.0138185E0,2.1632674E0,1.0557408E0,2.6161742E0,1.2281826E0,1.3879915E0],"tree_param":{"num_deleted":"0","num_feature":"8","num_nodes":"17","size_leaf_vector":"1"}},{"base_weights":[-5.5467572E-2,-2.0704497E-1,1.18660524E-1,3.0542344E-1,-1.6419679E-1,2.0371135E-1,3.951482E-2,1.4390278E-2,-8.7278605E-2,-4.37081E-2,1.6505575E-1,1.2930569E-1,-3.3579454E-2],"categories":[],"categories_nodes":[],"categories_segments":[],"categories_sizes":[],"default_left":[0,0,0,0,0,0,0,0,0,0,0,0,0],"id":22,"left_children":[1,-1,3,5,7,-1,9,-1,-1,-1,11,-1,-1],"loss_changes":[1.6614059E0,0E0,6.876955E-1,7.300575E-1,1.6049138E-1,0E0,1.522235E-1,0E0,0E0,0E0,3.2482654E-1,0E0,0E0],"parents":[2147483647,0,0,2,2,3,3,4,4,6,6,10,10],"right_children":[2,-1,4,6,8,-1,10,-1,-1,-1,12,-1,-1],"split_conditions":[1E0,-2.0704497E-1,3E0,3E0,1.19E2,2.0371135E-1,1E0,1.4390278E-2,-8.7278605E-2,-4.37081E-2,1.29E2,1.2930569E-1,-3.3579454E-2],"split_indices":[3,0,2,1,0,0,7,0,0,0,0,0,0],"split_type":[0,0,0,0,0,0,0,0,0,0,0,0,0],"sum_hessian":[1.3292157E1,2.223656E0,1.1068501E1,6.618625E0,4.449876E0,2.1059766E0,4.5126486E0,1.8964667E0,2.5534093E0,1.7582314E0,2.7544174E0,1.1214776E0,1.6329397E0],"tree_param":{"num_deleted":"0","num_feature":"8","num_nodes":"13","size_leaf_vector":"1"}},{"base_weights":[-4.3887313E-2,-1.9324909E-1,1.0699862E-1,1.9913548E-1,-9.740817E-2,-9.024841E-2,3.4999895E-1,2.457153E-1,-1.5784217E-1,1.9284378E-1,6.721214E-2,9.441154E-2,1.5495416E-2,-1.2408694E-1,1.5276958E-1],"categories":[],"categories_nodes":[],"categories_segments":[],"categories_sizes":[],"default_left":[0,0,0,0,0,0,0,0,0,0,0,0,0,0,0],"id":23,"left_children":[1,-1,3,5,-1,7,9,11,-1,-1,13,-1,-1,-1,-1],"loss_changes":[1.2709018E0,0E0,5.2058184E-1,4.7105607E-1,0E0,7.508642E-1,5.216655E-1,2.4963647E-2,0E0,0E0,1.185562E0,0E0,0E0,0E0,0E0],"parents":[2147483647,0,0,2,2,3,3,5,5,6,6,7,7,10,10],"right_children":[2,-1,4,6,-1,8,10,12,-1,-1,14,-1,-1,-1,-1],"split_conditions":[1E0,-1.9324909E-1,1.99E2,8.3E1,-9.740817E-2,1E0,1.23E2,4.9E1,-1.5784217E-1,1.9284378E-1,2E0,9.441154E-2,1.5495416E-2,-1.2408694E-1,1.5276958E-1],"split_indices":[3,0,0,0,0,2,0,0,0,0,7,0,0,0,0],"split_type":[0,0,0,0,0,0,0,0,0,0,0,0,0,0,0],"sum_hessian":[1.2270773E1,1.808144E0,1.0462629E1,9.066303E0,1.3963264E0,3.2445145E0,5.8217883E0,2.0786722E0,1.1658424E0,2.2347085E0,3.5870798E0,1.0748911E0,1.0037811E0,1.7488736E0,1.8382062E0],"tree_param":{"num_deleted":"0","num_feature":"8","num_nodes":"15","size_leaf_vector":"1"}},{"base_weights":[-4.3355547E-2,-1.7961082E-1,8.742776E-2,2.9523593E-1,-1.4181207E-1,1.9232796E-1,6.3873973E-4,4.758689E-2,-2.3741037E-1,-1.3335323E-1,6.339779E-2,-8.306958E-3,-1.02793835E-1,-5.9570572E-3,-5.711967E-2],"categories":[],"categories_nodes":[],"categories_segments":[],"categories_sizes":[],"default_left":[0,0,0,0,0,0,0,0,0,0,0,0,0,0,0],"id":24,"left_children":[1,-1,3,5,7,-1,9,-1,11,13,-1,-1,-1,-1,-1],"loss_changes":[9.528221E-1,0E0,5.614791E-1,6.155752E-1,2.060171E-1,0E0,1.486054E-1,0E0,9.7494364E-2,1.7070897E-2,0E0,0E0,0E0,0E0,0E0],"parents":[2147483647,0,0,2,2,3,3,4,4,6,6,8,8,9,9],"right_children":[2,-1,4,6,8,-1,10,-1,12,14,-1,-1,-1,-1,-1],"split_conditions":[1E0,-1.7961082E-1,3E0,3E0,4.9E1,1.9232796E-1,2E0,4.758689E-2,4.6666667E-1,3.3333334E-1,6.339779E-2,-8.306958E-3,-1.02793835E-1,-5.9570572E-3,-5.711967E-2],"split_indices":[3,0,1,2,0,0,7,0,6,6,0,0,0,0,0],"split_type":[0,0,0,0,0,0,0,0,0,0,0,0,0,0,0],"sum_hessian":[1.1398142E1,1.4906307E0,9.907511E0,5.04567E0,4.8618407E0,1.779899E0,3.265771E0,1.0144575E0,3.8473833E0,2.220587E0,1.0451839E0,1.7075635E0,2.1398199E0,1.193708E0,1.0268792E0],"tree_param":{"num_deleted":"0","num_feature":"8","num_nodes":"15","size_leaf_vector":"1"}},{"base_weights":[-3.6174037E-2,-1.6645993E-1,7.86268E-2,2.4743195E-1,-1.5738338E-1,1.7868835E-1,2.6828544E-2,7.1919714E-3,-7.907025E-2,-4.7118347E-2,1.6509171E-1,9.744768E-2,-1.8320577E-2],"categories":[],"categories_nodes":[],"categories_segments":[],"categories_sizes":[],"default_left":[0,0,0,0,0,0,0,0,0,0,0,0,0],"id":25,"left_children":[1,-1,3,5,7,-1,9,-1,-1,-1,11,-1,-1],"loss_changes":[7.407566E-1,0E0,4.557306E-1,4.823831E-1,1.0209711E-1,0E0,1.5353459E-1,0E0,0E0,0E0,1.409426E-1,0E0,0E0],"parents":[2147483647,0,0,2,2,3,3,4,4,6,6,10,10],"right_children":[2,-1,4,6,8,-1,10,-1,-1,-1,12,-1,-1],"split_conditions":[1E0,-1.6645993E-1,3E0,3E0,1.19E2,1.7868835E-1,1E0,7.1919714E-3,-7.907025E-2,-4.7118347E-2,1.5E2,9.744768E-2,-1.8320577E-2],"split_indices":[3,0,2,1,0,0,7,0,0,0,0,0,0],"split_type":[0,0,0,0,0,0,0,0,0,0,0,0,0],"sum_hessian":[1.0707344E1,1.2457062E0,9.461638E0,5.4879866E0,3.9736514E0,1.4691372E0,4.0188494E0,1.7533151E0,2.2203364E0,1.6664786E0,2.3523707E0,1.1229699E0,1.2294009E0],"tree_param":{"num_deleted":"0","num_feature":"8","num_nodes":"13","size_leaf_vector":"1"}},{"base_weights":[-2.869438E-2,9.552442E-2,-1.36101E-1,-1.9556853E-1,2.6971856E-1,5.7821885E-2,-1.24833696E-1,1.7155108E-1,4.678649E-3,-1.3225283E-1,1.305204E-1],"categories":[],"categories_nodes":[],"categories_segments":[],"categories_sizes":[],"default_left":[0,0,0,0,0,0,0,0,0,0,0],"id":26,"left_children":[1,3,-1,5,7,-1,-1,-1,9,-1,-1],"loss_changes":[6.3090736E-1,5.313644E-1,0E0,4.3247044E-1,5.0382835E-1,0E0,0E0,0E0,1.0312221E0,0E0,0E0],"parents":[2147483647,0,0,1,1,3,3,4,4,8,8],"right_children":[2,4,-1,6,8,-1,-1,-1,10,-1,-1],"split_conditions":[1.99E2,1E0,-1.36101E-1,5E1,1.19E2,5.7821885E-2,-1.24833696E-1,1.7155108E-1,2E0,-1.3225283E-1,1.305204E-1],"split_indices":[0,7,0,0,0,0,0,0,7,0,0],"split_type":[0,0,0,0,0,0,0,0,0,0,0],"sum_hessian":[1.0130352E1,8.438912E0,1.6914396E0,3.1134212E0,5.3254914E0,1.1734378E0,1.9399835E0,1.9477292E0,3.377762E0,1.64777E0,1.7299919E0],"tree_param":{"num_deleted":"0","num_feature":"8","num_nodes":"11","size_leaf_vector":"1"}},{"base_weights":[-2.4510939E-2,8.233597E-2,-1.1812343E-1,-1.555377E-1,2.3082863E-1,4.887952E-2,-1.0154842E-1,1.4627177E-1,2.3672993E-3,-1.1420669E-1,1.1007876E-1],"categories":[],"categories_nodes":[],"categories_segments":[],"categories_sizes":[],"default_left":[0,0,0,0,0,0,0,0,0,0,0],"id":27,"left_children":[1,3,-1,5,7,-1,-1,-1,9,-1,-1],"loss_changes":[4.490291E-1,3.544094E-1,0E0,2.9188675E-1,3.4809092E-1,0E0,0E0,0E0,7.199878E-1,0E0,0E0],"parents":[2147483647,0,0,1,1,3,3,4,4,8,8],"right_children":[2,4,-1,6,8,-1,-1,-1,10,-1,-1],"split_conditions":[1.99E2,1E0,-1.1812343E-1,5E1,1.19E2,4.887952E-2,-1.0154842E-1,1.4627177E-1,2E0,-1.1420669E-1,1.1007876E-1],"split_indices":[0,7,0,0,0,0,0,0,7,0,0],"split_type":[0,0,0,0,0,0,0,0,0,0,0],"sum_hessian":[9.560051E0,8.017111E0,1.5429403E0,3.0629923E0,4.9541183E0,1.1575403E0,1.905452E0,1.7986476E0,3.1554706E0,1.5171345E0,1.6383362E0],"tree_param":{"num_deleted":"0","num_feature":"8","num_nodes":"11","size_leaf_vector":"1"}},{"base_weights":[-2.071068E-2,1.681988E-1,-2.149125E-1,-3.260283E-2,2.7961335E-1,2.9612847E-2,-3.0845654E-1,1.5716833E-1,4.8293315E-2,-3.2484923E-2,-1.132068E-1,-2.872249E-2,5.1114507E-2],"categories":[],"categories_nodes":[],"categories_segments":[],"categories_sizes":[],"default_left":[0,0,0,0,0,0,0,0,0,0,0,0,0],"id":28,"left_children":[1,3,5,-1,7,-1,9,-1,11,-1,-1,-1,-1],"loss_changes":[4.0877438E-1,2.0651744E-1,1.9026026E-1,0E0,2.2057396E-1,0E0,2.035126E-2,0E0,7.4983865E-2,0E0,0E0,0E0,0E0],"parents":[2147483647,0,0,1,1,2,2,4,4,6,6,8,8],"right_children":[2,4,6,-1,8,-1,10,-1,12,-1,-1,-1,-1],"split_conditions":[3E0,8E1,5.1E1,-3.260283E-2,1.19E2,2.9612847E-2,4.6666667E-1,1.5716833E-1,2E0,-3.2484923E-2,-1.132068E-1,-2.872249E-2,5.1114507E-2],"split_indices":[1,0,0,0,0,0,6,0,7,0,0,0,0],"split_type":[0,0,0,0,0,0,0,0,0,0,0,0,0],"sum_hessian":[9.157024E0,4.709634E0,4.447391E0,1.3584198E0,3.351214E0,1.0090761E0,3.438315E0,1.0147755E0,2.3364382E0,1.5389155E0,1.8993995E0,1.1708808E0,1.1655575E0],"tree_param":{"num_deleted":"0","num_feature":"8","num_nodes":"13","size_leaf_vector":"1"}},{"base_weights":[-1.153268E-2,1.5553163E-1,-2.490237E-1,1.030126E-1,-4.6044635E-3,-2.5231378E-2,-1.05527215E-1,-4.191891E-2,8.906723E-2,5.8393553E-2,-2.0274084E-2],"categories":[],"categories_nodes":[],"categories_segments":[],"categories_sizes":[],"default_left":[0,0,0,0,0,0,0,0,0,0,0],"id":29,"left_children":[1,3,5,-1,7,-1,-1,-1,9,-1,-1],"loss_changes":[4.337053E-1,1.9588666E-1,4.6580255E-2,0E0,6.907064E-2,0E0,0E0,0E0,6.69512E-2,0E0,0E0],"parents":[2147483647,0,0,1,1,2,2,4,4,8,8],"right_children":[2,4,6,-1,8,-1,-1,-1,10,-1,-1],"split_conditions":[3E0,3E0,4.3333334E-1,1.030126E-1,4E-1,-2.5231378E-2,-1.05527215E-1,-4.191891E-2,1.05E2,5.8393553E-2,-2.0274084E-2],"split_indices":[2,1,6,0,6,0,0,0,0,0,0],"split_type":[0,0,0,0,0,0,0,0,0,0,0],"sum_hessian":[8.954922E0,5.4595075E0,3.4954143E0,1.9858193E0,3.4736884E0,2.0397139E0,1.4557005E0,1.2208567E0,2.2528317E0,1.2008855E0,1.051946E0],"tree_param":{"num_deleted":"0","num_feature":"8","num_nodes":"11","size_leaf_vector":"1"}},{"base_weights":[-1.1340295E-2,8.17256E-2,-1.02190934E-1,-1.4525343E-1,2.2766508E-1,3.3291183E-2,-8.619675E-2,1.2828778E-1,3.3949558E-2,-9.45308E-2,1.0095002E-1],"categories":[],"categories_nodes":[],"categories_segments":[],"categories_sizes":[],"default_left":[0,0,0,0,0,0,0,0,0,0,0],"id":30,"left_children":[1,3,-1,5,7,-1,-1,-1,9,-1,-1],"loss_changes":[3.2701302E-1,3.1190482E-1,0E0,1.7402077E-1,1.9902906E-1,0E0,0E0,0E0,5.164629E-1,0E0,0E0],"parents":[2147483647,0,0,1,1,3,3,4,4,8,8],"right_children":[2,4,-1,6,8,-1,-1,-1,10,-1,-1],"split_conditions":[1.99E2,1E0,-1.02190934E-1,5E1,1.19E2,3.3291183E-2,-8.619675E-2,1.2828778E-1,2E0,-9.45308E-2,1.0095002E-1],"split_indices":[0,7,0,0,0,0,0,0,7,0,0],"split_type":[0,0,0,0,0,0,0,0,0,0,0],"sum_hessian":[8.762187E0,7.4176292E0,1.344558E0,2.9046857E0,4.5129437E0,1.1141654E0,1.7905203E0,1.6265057E0,2.8864381E0,1.3209599E0,1.5654781E0],"tree_param":{"num_deleted":"0","num_feature":"8","num_nodes":"11","size_leaf_vector":"1"}},{"base_weights":[-1.0156698E-2,1.476622E-1,-2.3676951E-1,9.800654E-2,-1.31424405E-2,-2.7208492E-2,-9.56341E-2,-4.1345075E-2,2.957814E-2],"categories":[],"categories_nodes":[],"categories_segments":[],"categories_sizes":[],"default_left":[0,0,0,0,0,0,0,0,0],"id":31,"left_children":[1,3,5,-1,7,-1,-1,-1,-1],"loss_changes":[3.7365404E-1,1.8273376E-1,2.2264063E-2,0E0,7.246845E-2,0E0,0E0,0E0,0E0],"parents":[2147483647,0,0,1,1,2,2,4,4],"right_children":[2,4,6,-1,8,-1,-1,-1,-1],"split_conditions":[3E0,3E0,4.3333334E-1,9.800654E-2,1E0,-2.7208492E-2,-9.56341E-2,-4.1345075E-2,2.957814E-2],"split_indices":[2,1,6,0,7,0,0,0,0],"split_type":[0,0,0,0,0,0,0,0,0],"sum_hessian":[8.470256E0,5.1983724E0,3.2718832E0,1.9716823E0,3.2266903E0,1.9336427E0,1.3382406E0,1.4147309E0,1.8119593E0],"tree_param":{"num_deleted":"0","num_feature":"8","num_nodes":"9","size_leaf_vector":"1"}},{"base_weights":[-1.102613E-2,1.5270533E-1,-1.8158914E-1,-3.0858481E-2,2.5781927E-1,1.968483E-2,-2.6015982E-1,1.09172866E-1,-4.2025847E-3,-2.601539E-2,-9.5875725E-2],"categories":[],"categories_nodes":[],"categories_segments":[],"categories_sizes":[],"default_left":[0,0,0,0,0,0,0,0,0,0,0],"id":32,"left_children":[1,3,5,-1,7,-1,9,-1,-1,-1,-1],"loss_changes":[2.877618E-1,1.6873556E-1,1.14522204E-1,0E0,1.2149903E-1,0E0,1.3603032E-2,0E0,0E0,0E0,0E0],"parents":[2147483647,0,0,1,1,2,2,4,4,6,6],"right_children":[2,4,6,-1,8,-1,10,-1,-1,-1,-1],"split_conditions":[3E0,8E1,5.3E1,-3.0858481E-2,1.8E2,1.968483E-2,4.6666667E-1,1.09172866E-1,-4.2025847E-3,-2.601539E-2,-9.5875725E-2],"split_indices":[1,0,0,0,0,0,6,0,0,0,0],"split_type":[0,0,0,0,0,0,0,0,0,0,0],"sum_hessian":[8.3112955E0,4.29399E0,4.017305E0,1.2576507E0,3.0363395E0,1.0086594E0,3.0086455E0,1.9403145E0,1.0960251E0,1.3953645E0,1.613281E0],"tree_param":{"num_deleted":"0","num_feature":"8","num_nodes":"11","size_leaf_vector":"1"}},{"base_weights":[-1.0844641E-2,1.3464002E-1,-2.2276275E-1,7.796225E-2,1.5958108E-2,-8.1124544E-2,-1.7460804E-2,-3.80524E-2,1.1096638E-1,4.764117E-2,2.1197419E-3],"categories":[],"categories_nodes":[],"categories_segments":[],"categories_sizes":[],"default_left":[0,0,0,0,0,0,0,0,0,0,0],"id":33,"left_children":[1,3,5,-1,7,-1,-1,-1,9,-1,-1],"loss_changes":[3.1313452E-1,8.60517E-2,1.6529992E-2,0E0,7.080293E-2,0E0,0E0,0E0,1.400844E-2,0E0,0E0],"parents":[2147483647,0,0,1,1,2,2,4,4,8,8],"right_children":[2,4,6,-1,8,-1,-1,-1,10,-1,-1],"split_conditions":[3E0,3E0,1E0,7.796225E-2,4E-1,-8.1124544E-2,-1.7460804E-2,-3.80524E-2,1E2,4.764117E-2,2.1197419E-3],"split_indices":[2,1,4,0,6,0,0,0,0,0,0],"split_type":[0,0,0,0,0,0,0,0,0,0,0],"sum_hessian":[8.183719E0,5.068669E0,3.11505E0,1.8873994E0,3.1812694E0,1.916748E0,1.198302E0,1.1371114E0,2.044158E0,1.0378796E0,1.0062784E0],"tree_param":{"num_deleted":"0","num_feature":"8","num_nodes":"11","size_leaf_vector":"1"}},{"base_weights":[-8.549126E-3,7.5128086E-2,-9.233743E-2,-1.326956E-1,2.1012957E-1,-8.719626E-2,2.1281905E-2,1.1913835E-1,2.4118476E-2,-9.43925E-2,9.4080284E-2],"categories":[],"categories_nodes":[],"categories_segments":[],"categories_sizes":[],"default_left":[0,0,0,0,0,0,0,0,0,0,0],"id":34,"left_children":[1,3,-1,5,7,-1,-1,-1,9,-1,-1],"loss_changes":[2.506489E-1,2.4966215E-1,0E0,1.4046097E-1,1.7056619E-1,0E0,0E0,0E0,4.576884E-1,0E0,0E0],"parents":[2147483647,0,0,1,1,3,3,4,4,8,8],"right_children":[2,4,-1,6,8,-1,-1,-1,10,-1,-1],"split_conditions":[1.99E2,1E0,-9.233743E-2,5.3333336E-1,1.19E2,-8.719626E-2,2.1281905E-2,1.1913835E-1,2E0,-9.43925E-2,9.4080284E-2],"split_indices":[0,7,0,6,0,0,0,0,7,0,0],"split_type":[0,0,0,0,0,0,0,0,0,0,0],"sum_hessian":[8.086553E0,6.904722E0,1.1818306E0,2.7257438E0,4.1789784E0,1.2943769E0,1.4313669E0,1.5179769E0,2.6610014E0,1.1860929E0,1.4749085E0],"tree_param":{"num_deleted":"0","num_feature":"8","num_nodes":"11","size_leaf_vector":"1"}},{"base_weights":[-1.0432501E-2,1.2606536E-1,-2.1049963E-1,7.346776E-2,8.723435E-3,-2.2342343E-2,-7.887924E-2,-3.4240555E-2,3.4276813E-2],"categories":[],"categories_nodes":[],"categories_segments":[],"categories_sizes":[],"default_left":[0,0,0,0,0,0,0,0,0],"id":35,"left_children":[1,3,5,-1,7,-1,-1,-1,-1],"loss_changes":[2.6820052E-1,7.9931974E-2,8.685961E-3,0E0,6.488161E-2,0E0,0E0,0E0,0E0],"parents":[2147483647,0,0,1,1,2,2,4,4],"right_children":[2,4,6,-1,8,-1,-1,-1,-1],"split_conditions":[3E0,3E0,2E0,7.346776E-2,1E0,-2.2342343E-2,-7.887924E-2,-3.4240555E-2,3.4276813E-2],"split_indices":[2,1,1,0,7,0,0,0,0],"split_type":[0,0,0,0,0,0,0,0,0],"sum_hessian":[7.8493223E0,4.8858113E0,2.9635105E0,1.8874611E0,2.9983506E0,1.4978853E0,1.4656253E0,1.3477801E0,1.6505704E0],"tree_param":{"num_deleted":"0","num_feature":"8","num_nodes":"9","size_leaf_vector":"1"}},{"base_weights":[-1.0573065E-2,1.278921E-1,-1.5685311E-1,-2.6176183E-2,2.2925639E-1,1.8801779E-2,-2.3320551E-1,9.41405E-2,1.4097515E-3,-2.154304E-2,-8.625744E-2],"categories":[],"categories_nodes":[],"categories_segments":[],"categories_sizes":[],"default_left":[0,0,0,0,0,0,0,0,0,0,0],"id":36,"left_children":[1,3,5,-1,7,-1,9,-1,-1,-1,-1],"loss_changes":[1.9719285E-1,1.2999266E-1,9.3423426E-2,0E0,6.884597E-2,0E0,1.1792719E-2,0E0,0E0,0E0,0E0],"parents":[2147483647,0,0,1,1,2,2,4,4,6,6],"right_children":[2,4,6,-1,8,-1,10,-1,-1,-1,-1],"split_conditions":[3E0,1E0,5.7E1,-2.6176183E-2,1.8E2,1.8801779E-2,4.6666667E-1,9.41405E-2,1.4097515E-3,-2.154304E-2,-8.625744E-2],"split_indices":[1,7,0,0,0,0,6,0,0,0,0],"split_type":[0,0,0,0,0,0,0,0,0,0,0],"sum_hessian":[7.7452617E0,4.043493E0,3.701769E0,1.3395333E0,2.7039592E0,1.0014894E0,2.7002797E0,1.6756552E0,1.0283041E0,1.2646645E0,1.4356153E0],"tree_param":{"num_deleted":"0","num_feature":"8","num_nodes":"11","size_leaf_vector":"1"}},{"base_weights":[-9.768916E-3,1.1547775E-1,-1.9680019E-1,1.5713058E-1,-9.978969E-3,-6.957917E-2,-1.6677301E-2,9.671154E-3,6.1959248E-2],"categories":[],"categories_nodes":[],"categories_segments":[],"categories_sizes":[],"default_left":[0,0,0,0,0,0,0,0,0],"id":37,"left_children":[1,3,5,7,-1,-1,-1,-1,-1],"loss_changes":[2.2544557E-1,4.1242823E-2,6.1593056E-3,2.243995E-2,0E0,0E0,0E0,0E0,0E0],"parents":[2147483647,0,0,1,1,2,2,3,3],"right_children":[2,4,6,8,-1,-1,-1,-1,-1],"split_conditions":[3E0,1.79E2,1E0,4.3333334E-1,-9.978969E-3,-6.957917E-2,-1.6677301E-2,9.671154E-3,6.1959248E-2],"split_indices":[2,0,4,6,0,0,0,0,0],"split_type":[0,0,0,0,0,0,0,0,0],"sum_hessian":[7.653967E0,4.813291E0,2.8406756E0,3.7162132E0,1.0970781E0,1.7602862E0,1.0803893E0,1.5216802E0,2.1945329E0],"tree_param":{"num_deleted":"0","num_feature":"8","num_nodes":"9","size_leaf_vector":"1"}},{"base_weights":[-9.72945E-3,6.137926E-2,-7.906475E-2,-1.2420499E-1,1.8692775E-1,2.5444476E-2,-7.28182E-2,1.0674798E-1,1.668788E-2,-9.1487676E-2,8.81816E-2],"categories":[],"categories_nodes":[],"categories_segments":[],"categories_sizes":[],"default_left":[0,0,0,0,0,0,0,0,0,0,0],"id":38,"left_children":[1,3,-1,5,7,-1,-1,-1,9,-1,-1],"loss_changes":[1.7142239E-1,1.9866918E-1,0E0,1.1074717E-1,1.3468866E-1,0E0,0E0,0E0,4.0041476E-1,0E0,0E0],"parents":[2147483647,0,0,1,1,3,3,4,4,8,8],"right_children":[2,4,-1,6,8,-1,-1,-1,10,-1,-1],"split_conditions":[1.99E2,1E0,-7.906475E-2,5E1,1.19E2,2.5444476E-2,-7.28182E-2,1.0674798E-1,2E0,-9.1487676E-2,8.81816E-2],"split_indices":[0,7,0,0,0,0,0,0,7,0,0],"split_type":[0,0,0,0,0,0,0,0,0,0,0],"sum_hessian":[7.6014585E0,6.530178E0,1.0712806E0,2.6393797E0,3.890798E0,1.0579791E0,1.5814006E0,1.4058622E0,2.4849358E0,1.1040992E0,1.3808367E0],"tree_param":{"num_deleted":"0","num_feature":"8","num_nodes":"11","size_leaf_vector":"1"}},{"base_weights":[-9.634416E-3,1.3598624E-1,-1.6710499E-1,-1.4951344E-2,2.0902182E-1,-5.913453E-4,-2.1571662E-1,8.4808856E-2,1.719839E-2,-7.692837E-2,-2.0520194E-2],"categories":[],"categories_nodes":[],"categories_segments":[],"categories_sizes":[],"default_left":[0,0,0,0,0,0,0,0,0,0,0],"id":39,"left_children":[1,3,5,-1,7,-1,9,-1,-1,-1,-1],"loss_changes":[2.1524604E-1,7.709962E-2,3.5556942E-2,0E0,2.536352E-2,0E0,3.1737834E-3,0E0,0E0,0E0,0E0],"parents":[2147483647,0,0,1,1,2,2,4,4,6,6],"right_children":[2,4,6,-1,8,-1,10,-1,-1,-1,-1],"split_conditions":[3E0,8E1,6.4E1,-1.4951344E-2,1.53E2,-5.913453E-4,4E0,8.4808856E-2,1.719839E-2,-7.692837E-2,-2.0520194E-2],"split_indices":[1,0,0,0,0,0,1,0,0,0,0],"split_type":[0,0,0,0,0,0,0,0,0,0,0],"sum_hessian":[7.395723E0,3.91332E0,3.4824026E0,1.1937332E0,2.7195868E0,1.0286443E0,2.4537582E0,1.2492547E0,1.470332E0,1.3421774E0,1.111581E0],"tree_param":{"num_deleted":"0","num_feature":"8","num_nodes":"11","size_leaf_vector":"1"}},{"base_weights":[-8.136043E-3,1.1825492E-1,-6.0774557E-2,6.1299633E-2,2.0857358E-2,-3.3270698E-2,3.9580226E-2],"categories":[],"categories_nodes":[],"categories_segments":[],"categories_sizes":[],"default_left":[0,0,0,0,0,0,0],"id":40,"left_children":[1,3,-1,-1,5,-1,-1],"loss_changes":[2.2861707E-1,4.3344475E-2,0E0,0E0,6.9920294E-2,0E0,0E0],"parents":[2147483647,0,0,1,1,4,4],"right_children":[2,4,-1,-1,6,-1,-1],"split_conditions":[3E0,3E0,-6.0774557E-2,6.1299633E-2,1E0,-3.3270698E-2,3.9580226E-2],"split_indices":[2,1,0,0,7,0,0],"split_type":[0,0,0,0,0,0,0],"sum_hessian":[7.3276024E0,4.6784306E0,2.649172E0,1.900715E0,2.7777154E0,1.2712834E0,1.5064319E0],"tree_param":{"num_deleted":"0","num_feature":"8","num_nodes":"7","size_leaf_vector":"1"}},{"base_weights":[-4.901556E-3,1.1555484E-1,-1.3704276E-1,-1.605353E-2,1.9254157E-1,-5.4859826E-3,-6.632143E-2,8.0248356E-2,1.4896349E-2],"categories":[],"categories_nodes":[],"categories_segments":[],"categories_sizes":[],"default_left":[0,0,0,0,0,0,0,0,0],"id":41,"left_children":[1,3,5,-1,7,-1,-1,-1,-1],"loss_changes":[1.4718059E-1,7.355066E-2,3.9789453E-2,0E0,2.4805367E-2,0E0,0E0,0E0,0E0],"parents":[2147483647,0,0,1,1,2,2,4,4],"right_children":[2,4,6,-1,8,-1,-1,-1,-1],"split_conditions":[3E0,1E0,1.19E2,-1.605353E-2,1.53E2,-5.4859826E-3,-6.632143E-2,8.0248356E-2,1.4896349E-2],"split_indices":[1,7,0,0,0,0,0,0,0],"split_type":[0,0,0,0,0,0,0,0,0],"sum_hessian":[7.251716E0,3.8592482E0,3.3924677E0,1.3029122E0,2.556336E0,1.9103E0,1.4821677E0,1.1047555E0,1.4515805E0],"tree_param":{"num_deleted":"0","num_feature":"8","num_nodes":"9","size_leaf_vector":"1"}},{"base_weights":[-2.5933175E-3,1.0708976E-1,-1.752952E-1,1.6483708E-3,1.5163462E-1,-6.5586686E-2,-1.0562448E-2,6.510874E-2,1.01784775E-2],"categories":[],"categories_nodes":[],"categories_segments":[],"categories_sizes":[],"default_left":[0,0,0,0,0,0,0,0,0],"id":42,"left_children":[1,3,5,-1,7,-1,-1,-1,-1],"loss_changes":[1.7400032E-1,2.4656996E-2,1.3923667E-2,0E0,2.248744E-2,0E0,0E0,0E0,0E0],"parents":[2147483647,0,0,1,1,2,2,4,4],"right_children":[2,4,6,-1,8,-1,-1,-1,-1],"split_conditions":[3E0,3.6666667E-1,2E0,1.6483708E-3,6.666667E-1,-6.5586686E-2,-1.0562448E-2,6.510874E-2,1.01784775E-2],"split_indices":[2,6,7,0,6,0,0,0,0],"split_type":[0,0,0,0,0,0,0,0,0],"sum_hessian":[7.1947045E0,4.63251E0,2.5621946E0,1.7544398E0,2.8780704E0,1.5287541E0,1.0334405E0,1.3077186E0,1.5703517E0],"tree_param":{"num_deleted":"0","num_feature":"8","num_nodes":"9","size_leaf_vector":"1"}},{"base_weights":[-1.7185987E-3,1.0793832E-1,-1.2357297E-1,-1.3214285E-2,1.75678E-1,-6.3269925E-3,-5.8185257E-2,7.40654E-2,1.282312E-2],"categories":[],"categories_nodes":[],"categories_segments":[],"categories_sizes":[],"default_left":[0,0,0,0,0,0,0,0,0],"id":43,"left_children":[1,3,5,-1,7,-1,-1,-1,-1],"loss_changes":[1.2226857E-1,5.7409663E-2,2.7122192E-2,0E0,2.2934146E-2,0E0,0E0,0E0,0E0],"parents":[2147483647,0,0,1,1,2,2,4,4],"right_children":[2,4,6,-1,8,-1,-1,-1,-1],"split_conditions":[3E0,1E0,1.19E2,-1.3214285E-2,1.52E2,-6.3269925E-3,-5.8185257E-2,7.40654E-2,1.282312E-2],"split_indices":[1,7,0,0,0,0,0,0,0],"split_type":[0,0,0,0,0,0,0,0,0],"sum_hessian":[7.1521406E0,3.8245895E0,3.3275511E0,1.2869166E0,2.5376728E0,1.8839073E0,1.4436438E0,1.094309E0,1.4433638E0],"tree_param":{"num_deleted":"0","num_feature":"8","num_nodes":"9","size_leaf_vector":"1"}},{"base_weights":[-9.3061906E-5,9.913584E-2,-1.5962861E-1,1.261039E-1,-3.1647815E-3,-6.0479667E-2,-8.378919E-3,7.346746E-3,5.033464E-2],"categories":[],"categories_nodes":[],"categories_segments":[],"categories_sizes":[],"default_left":[0,0,0,0,0,0,0,0,0],"id":44,"left_children":[1,3,5,7,-1,-1,-1,-1,-1],"loss_changes":[1.441596E-1,1.793928E-2,1.3670303E-2,1.5305184E-2,0E0,0E0,0E0,0E0,0E0],"parents":[2147483647,0,0,1,1,2,2,3,3],"right_children":[2,4,6,8,-1,-1,-1,-1,-1],"split_conditions":[3E0,1.79E2,2E0,4.3333334E-1,-3.1647815E-3,-6.0479667E-2,-8.378919E-3,7.346746E-3,5.033464E-2],"split_indices":[2,0,7,6,0,0,0,0,0],"split_type":[0,0,0,0,0,0,0,0,0],"sum_hessian":[7.106781E0,4.614946E0,2.491835E0,3.584052E0,1.0308936E0,1.4871489E0,1.0046862E0,1.5042214E0,2.0798306E0],"tree_param":{"num_deleted":"0","num_feature":"8","num_nodes":"9","size_leaf_vector":"1"}},{"base_weights":[-1.8559302E-3,1.00636564E-1,-1.16454855E-1,-1.2092016E-2,1.6280642E-1,-4.9657542E-2,2.8296446E-3,6.7922466E-2,1.2324652E-2],"categories":[],"categories_nodes":[],"categories_segments":[],"categories_sizes":[],"default_left":[0,0,0,0,0,0,0,0,0],"id":45,"left_children":[1,3,5,-1,7,-1,-1,-1,-1],"loss_changes":[1.0652317E-1,4.8597474E-2,2.7964555E-2,0E0,1.8006653E-2,0E0,0E0,0E0,0E0],"parents":[2147483647,0,0,1,1,2,2,4,4],"right_children":[2,4,6,-1,8,-1,-1,-1,-1],"split_conditions":[3E0,1E0,4E0,-1.2092016E-2,1.52E2,-4.9657542E-2,2.8296446E-3,6.7922466E-2,1.2324652E-2],"split_indices":[1,7,1,0,0,0,0,0,0],"split_type":[0,0,0,0,0,0,0,0,0],"sum_hessian":[7.0714593E0,3.7972205E0,3.2742386E0,1.269912E0,2.5273085E0,2.1293538E0,1.144885E0,1.0951014E0,1.4322071E0],"tree_param":{"num_deleted":"0","num_feature":"8","num_nodes":"9","size_leaf_vector":"1"}},{"base_weights":[1.3561597E-3,-1.5050577E-1,1.4464433E-1,3.0318186E-1,-1.2183081E-1,1.584452E-1,8.5371904E-2,-1.0805366E-2,-4.400263E-2,-2.7425183E-2,6.5637745E-2],"categories":[],"categories_nodes":[],"categories_segments":[],"categories_sizes":[],"default_left":[0,0,0,0,0,0,0,0,0,0,0],"id":46,"left_children":[1,-1,3,5,7,-1,9,-1,-1,-1,-1],"loss_changes":[6.519797E-1,0E0,3.340382E-1,1.8501502E-1,1.830738E-3,0E0,1.0441458E-1,0E0,0E0,0E0,0E0],"parents":[2147483647,0,0,2,2,3,3,4,4,6,6],"right_children":[2,-1,4,6,8,-1,10,-1,-1,-1,-1],"split_conditions":[1E0,-1.5050577E-1,3E0,3E0,1.19E2,1.584452E-1,1E0,-1.0805366E-2,-4.400263E-2,-2.7425183E-2,6.5637745E-2],"split_indices":[3,0,2,1,0,0,7,0,0,0,0],"split_type":[0,0,0,0,0,0,0,0,0,0,0],"sum_hessian":[7.038484E0,1.005885E0,6.032599E0,3.6959627E0,2.336636E0,1.1172098E0,2.578753E0,1.0746245E0,1.2620116E0,1.2445192E0,1.3342338E0],"tree_param":{"num_deleted":"0","num_feature":"8","num_nodes":"11","size_leaf_vector":"1"}},{"base_weights":[2.2474189E-4,-5.8813136E-2,5.90365E-2,1.9574465E-1,-1.0381188E-1,8.0309264E-2,6.3997298E-3,-8.054426E-2,1.9506307E-2],"categories":[],"categories_nodes":[],"categories_segments":[],"categories_sizes":[],"default_left":[0,0,0,0,0,0,0,0,0],"id":47,"left_children":[1,-1,3,5,7,-1,-1,-1,-1],"loss_changes":[1.0035923E-1,0E0,1.6918932E-1,4.4258386E-2,1.2046562E-1,0E0,0E0,0E0,0E0],"parents":[2147483647,0,0,2,2,3,3,4,4],"right_children":[2,-1,4,6,8,-1,-1,-1,-1],"split_conditions":[1E-1,-5.8813136E-2,1.19E2,7E-1,2E0,8.0309264E-2,6.3997298E-3,-8.054426E-2,1.9506307E-2],"split_indices":[6,0,0,6,7,0,0,0,0],"split_type":[0,0,0,0,0,0,0,0,0],"sum_hessian":[6.691786E0,1.0048746E0,5.686911E0,2.981768E0,2.7051435E0,1.7322724E0,1.2494956E0,1.0706663E0,1.6344771E0],"tree_param":{"num_deleted":"0","num_feature":"8","num_nodes":"9","size_leaf_vector":"1"}},{"base_weights":[-4.2141406E-3,7.711623E-2,-1.2930307E-1,5.297254E-4,1.10024564E-1,-1.206368E-2,-4.853425E-2,4.8984945E-2,2.579301E-3],"categories":[],"categories_nodes":[],"categories_segments":[],"categories_sizes":[],"default_left":[0,0,0,0,0,0,0,0,0],"id":48,"left_children":[1,3,5,-1,7,-1,-1,-1,-1],"loss_changes":[8.741938E-2,1.2798304E-2,3.2542087E-3,0E0,1.820815E-2,0E0,0E0,0E0,0E0],"parents":[2147483647,0,0,1,1,2,2,4,4],"right_children":[2,4,6,-1,8,-1,-1,-1,-1],"split_conditions":[3E0,3.6666667E-1,2E0,5.297254E-4,9.2E1,-1.206368E-2,-4.853425E-2,4.8984945E-2,2.579301E-3],"split_indices":[2,6,1,0,0,0,0,0,0],"split_type":[0,0,0,0,0,0,0,0,0],"sum_hessian":[6.612699E0,4.2396626E0,2.3730366E0,1.6090543E0,2.630608E0,1.2319052E0,1.1411315E0,1.3249996E0,1.3056086E0],"tree_param":{"num_deleted":"0","num_feature":"8","num_nodes":"9","size_leaf_vector":"1"}},{"base_weights":[-4.0987204E-3,9.615961E-2,-1.1152135E-1,-2.4914512E-2,5.4219373E-2,-4.5728277E-2,1.5526939E-3],"categories":[],"categories_nodes":[],"categories_segments":[],"categories_sizes":[],"default_left":[0,0,0,0,0,0,0],"id":49,"left_children":[1,3,5,-1,-1,-1,-1],"loss_changes":[9.240168E-2,8.260028E-2,2.0475946E-2,0E0,0E0,0E0,0E0],"parents":[2147483647,0,0,1,1,2,2],"right_children":[2,4,6,-1,-1,-1,-1],"split_conditions":[3E0,1E0,1E0,-2.4914512E-2,5.4219373E-2,-4.5728277E-2,1.5526939E-3],"split_indices":[1,7,4,0,0,0,0],"split_type":[0,0,0,0,0,0,0],"sum_hessian":[6.58382E0,3.4597023E0,3.1241176E0,1.1150063E0,2.3446958E0,2.0865343E0,1.0375834E0],"tree_param":{"num_deleted":"0","num_feature":"8","num_nodes":"7","size_leaf_vector":"1"}},{"base_weights":[-4.8429742E-3,7.4318424E-2,-3.841441E-2,2.1116503E-3,1.02344096E-1,4.529864E-2,-3.2747746E-4],"categories":[],"categories_nodes":[],"categories_segments":[],"categories_sizes":[],"default_left":[0,0,0,0,0,0,0],"id":50,"left_children":[1,3,-1,-1,5,-1,-1],"loss_changes":[8.320055E-2,9.145556E-3,0E0,0E0,1.8381093E-2,0E0,0E0],"parents":[2147483647,0,0,1,1,4,4],"right_children":[2,4,-1,-1,6,-1,-1],"split_conditions":[3E0,3.6666667E-1,-3.841441E-2,2.1116503E-3,1.05E2,4.529864E-2,-3.2747746E-4],"split_indices":[2,6,0,0,0,0,0],"split_type":[0,0,0,0,0,0,0],"sum_hessian":[6.554965E0,4.232379E0,2.3225863E0,1.6125002E0,2.6198785E0,1.4690874E0,1.1507913E0],"tree_param":{"num_deleted":"0","num_feature":"8","num_nodes":"7","size_leaf_vector":"1"}},{"base_weights":[-2.2513585E-3,-1.1671177E-1,7.125525E-2,-6.264036E-2,6.9430354E-3,8.5694075E-2,-6.552555E-2,-7.5208575E-2,2.7543621E-2],"categories":[],"categories_nodes":[],"categories_segments":[],"categories_sizes":[],"default_left":[0,0,0,0,0,0,0,0,0],"id":51,"left_children":[1,3,5,-1,-1,-1,7,-1,-1],"loss_changes":[7.168177E-2,4.764651E-2,1.7141147E-1,0E0,0E0,0E0,1.393295E-1,0E0,0E0],"parents":[2147483647,0,0,1,1,2,2,6,6],"right_children":[2,4,6,-1,-1,-1,8,-1,-1],"split_conditions":[1E0,5.3333336E-1,1.19E2,-6.264036E-2,6.9430354E-3,8.5694075E-2,2E0,-7.5208575E-2,2.7543621E-2],"split_indices":[7,6,0,0,0,0,7,0,0],"split_type":[0,0,0,0,0,0,0,0,0],"sum_hessian":[6.5313144E0,2.3242886E0,4.207026E0,1.10422E0,1.2200686E0,1.2147144E0,2.9923115E0,1.1020073E0,1.8903042E0],"tree_param":{"num_deleted":"0","num_feature":"8","num_nodes":"9","size_leaf_vector":"1"}},{"base_weights":[-3.9474815E-3,8.991557E-2,-1.0552421E-1,-1.6432138E-2,4.6551157E-2,-2.4396381E-3,-4.703627E-2],"categories":[],"categories_nodes":[],"categories_segments":[],"categories_sizes":[],"default_left":[0,0,0,0,0,0,0],"id":52,"left_children":[1,3,5,-1,-1,-1,-1],"loss_changes":[8.0547765E-2,5.017048E-2,1.8892806E-2,0E0,0E0,0E0,0E0],"parents":[2147483647,0,0,1,1,2,2],"right_children":[2,4,6,-1,-1,-1,-1],"split_conditions":[3E0,1E0,1E0,-1.6432138E-2,4.6551157E-2,-2.4396381E-3,-4.703627E-2],"split_indices":[1,7,2,0,0,0,0],"split_type":[0,0,0,0,0,0,0],"sum_hessian":[6.4530363E0,3.4135296E0,3.0395067E0,1.1109177E0,2.3026118E0,1.4477156E0,1.5917912E0],"tree_param":{"num_deleted":"0","num_feature":"8","num_nodes":"7","size_leaf_vector":"1"}},{"base_weights":[-5.4006544E-3,7.3465265E-2,-3.92904E-2,1.0636434E-1,-1.0473296E-3,7.250406E-3,4.7654033E-2],"categories":[],"categories_nodes":[],"categories_segments":[],"categories_sizes":[],"default_left":[0,0,0,0,0,0,0],"id":53,"left_children":[1,3,-1,5,-1,-1,-1],"loss_changes":[8.317544E-2,1.3543578E-2,0E0,1.2020558E-2,0E0,0E0,0E0],"parents":[2147483647,0,0,1,1,3,3],"right_children":[2,4,-1,6,-1,-1,-1],"split_conditions":[3E0,6.333333E-1,-3.92904E-2,3.6666667E-1,-1.0473296E-3,7.250406E-3,4.7654033E-2],"split_indices":[2,6,0,6,0,0,0],"split_type":[0,0,0,0,0,0,0],"sum_hessian":[6.427443E0,4.202736E0,2.2247071E0,2.67642E0,1.5263159E0,1.612099E0,1.064321E0],"tree_param":{"num_deleted":"0","num_feature":"8","num_nodes":"7","size_leaf_vector":"1"}},{"base_weights":[-1.8295114E-3,7.972932E-2,-9.131173E-2,-1.3814708E-2,1.35598E-1,-4.1006994E-2,5.6071435E-3,5.2003816E-2,1.2988244E-2],"categories":[],"categories_nodes":[],"categories_segments":[],"categories_sizes":[],"default_left":[0,0,0,0,0,0,0,0,0],"id":54,"left_children":[1,3,5,-1,7,-1,-1,-1,-1],"loss_changes":[6.131357E-2,3.7214167E-2,2.2504404E-2,0E0,4.0115044E-3,0E0,0E0,0E0,0E0],"parents":[2147483647,0,0,1,1,2,2,4,4],"right_children":[2,4,6,-1,8,-1,-1,-1,-1],"split_conditions":[3E0,1E0,4E0,-1.3814708E-2,1.55E2,-4.1006994E-2,5.6071435E-3,5.2003816E-2,1.2988244E-2],"split_indices":[1,7,1,0,0,0,0,0,0],"split_type":[0,0,0,0,0,0,0,0,0],"sum_hessian":[6.403791E0,3.4072425E0,2.9965484E0,1.1020156E0,2.305227E0,1.9496607E0,1.0468876E0,1.0129738E0,1.2922533E0],"tree_param":{"num_deleted":"0","num_feature":"8","num_nodes":"9","size_leaf_vector":"1"}},{"base_weights":[8.502387E-4,7.220704E-2,-3.4760736E-2,3.7482295E-2,1.700419E-2,2.7183646E-2,-1.9884909E-2],"categories":[],"categories_nodes":[],"categories_segments":[],"categories_sizes":[],"default_left":[0,0,0,0,0,0,0],"id":55,"left_children":[1,3,-1,-1,5,-1,-1],"loss_changes":[6.9856144E-2,1.3006708E-2,0E0,0E0,2.8670942E-2,0E0,0E0],"parents":[2147483647,0,0,1,1,4,4],"right_children":[2,4,-1,-1,6,-1,-1],"split_conditions":[3E0,7.1E1,-3.4760736E-2,3.7482295E-2,4.6666667E-1,2.7183646E-2,-1.9884909E-2],"split_indices":[2,0,0,0,6,0,0],"split_type":[0,0,0,0,0,0,0],"sum_hessian":[6.382837E0,4.1978364E0,2.1850004E0,1.5008266E0,2.6970098E0,1.3850106E0,1.3119992E0],"tree_param":{"num_deleted":"0","num_feature":"8","num_nodes":"7","size_leaf_vector":"1"}},{"base_weights":[1.9592396E-3,7.571618E-2,-8.0412224E-2,-1.2918127E-2,1.2777033E-1,-3.5734255E-2,4.4265296E-3,4.668809E-2,1.1456997E-2],"categories":[],"categories_nodes":[],"categories_segments":[],"categories_sizes":[],"default_left":[0,0,0,0,0,0,0,0,0],"id":56,"left_children":[1,3,5,-1,7,-1,-1,-1,-1],"loss_changes":[5.077546E-2,3.267911E-2,1.6341755E-2,0E0,2.31212E-3,0E0,0E0,0E0,0E0],"parents":[2147483647,0,0,1,1,2,2,4,4],"right_children":[2,4,6,-1,8,-1,-1,-1,-1],"split_conditions":[3E0,1E0,4E0,-1.2918127E-2,1E0,-3.5734255E-2,4.4265296E-3,4.668809E-2,1.1456997E-2],"split_indices":[1,7,1,0,4,0,0,0,0],"split_type":[0,0,0,0,0,0,0,0,0],"sum_hessian":[6.355312E0,3.3956127E0,2.959699E0,1.0873306E0,2.3082821E0,1.9251598E0,1.0345391E0,1.1983459E0,1.1099362E0],"tree_param":{"num_deleted":"0","num_feature":"8","num_nodes":"9","size_leaf_vector":"1"}},{"base_weights":[3.2731637E-3,6.732156E-2,-1.03051536E-1,3.5274122E-2,1.5147144E-2,-1.0008259E-2,-3.7615485E-2,-2.2170844E-2,2.317027E-2],"categories":[],"categories_nodes":[],"categories_segments":[],"categories_sizes":[],"default_left":[0,0,0,0,0,0,0,0,0],"id":57,"left_children":[1,3,5,-1,7,-1,-1,-1,-1],"loss_changes":[5.6915462E-2,1.1814946E-2,7.2615966E-4,0E0,2.611945E-2,0E0,0E0,0E0,0E0],"parents":[2147483647,0,0,1,1,2,2,4,4],"right_children":[2,4,6,-1,8,-1,-1,-1,-1],"split_conditions":[3E0,7.1E1,3.3333334E-1,3.5274122E-2,1E0,-1.0008259E-2,-3.7615485E-2,-2.2170844E-2,2.317027E-2],"split_indices":[2,0,6,0,2,0,0,0,0],"split_type":[0,0,0,0,0,0,0,0,0],"sum_hessian":[6.338973E0,4.1848893E0,2.1540837E0,1.4930519E0,2.6918373E0,1.1279906E0,1.0260932E0,1.0276278E0,1.6642096E0],"tree_param":{"num_deleted":"0","num_feature":"8","num_nodes":"9","size_leaf_vector":"1"}},{"base_weights":[7.3891244E-4,-8.742147E-2,5.7158604E-2,-5.1545177E-2,9.6711125E-3,7.566161E-2,-6.660689E-2,-7.270136E-2,2.4850093E-2],"categories":[],"categories_nodes":[],"categories_segments":[],"categories_sizes":[],"default_left":[0,0,0,0,0,0,0,0,0],"id":58,"left_children":[1,3,5,-1,-1,-1,7,-1,-1],"loss_changes":[4.137391E-2,3.8352337E-2,1.3904808E-1,0E0,0E0,0E0,1.2221191E-1,0E0,0E0],"parents":[2147483647,0,0,1,1,2,2,6,6],"right_children":[2,4,6,-1,-1,-1,8,-1,-1],"split_conditions":[1E0,5.3333336E-1,1.19E2,-5.1545177E-2,9.6711125E-3,7.566161E-2,2E0,-7.270136E-2,2.4850093E-2],"split_indices":[7,6,0,0,0,0,7,0,0],"split_type":[0,0,0,0,0,0,0,0,0],"sum_hessian":[6.313461E0,2.2492847E0,4.064176E0,1.0633804E0,1.1859043E0,1.1748762E0,2.8893E0,1.0421613E0,1.8471386E0],"tree_param":{"num_deleted":"0","num_feature":"8","num_nodes":"9","size_leaf_vector":"1"}},{"base_weights":[-1.4427195E-3,5.8808297E-2,-1.00990385E-1,3.231786E-2,9.56103E-3,-8.642355E-3,-3.7701834E-2,2.085455E-2,-1.7075496E-2],"categories":[],"categories_nodes":[],"categories_segments":[],"categories_sizes":[],"default_left":[0,0,0,0,0,0,0,0,0],"id":59,"left_children":[1,3,5,-1,7,-1,-1,-1,-1],"loss_changes":[4.941789E-2,1.1371555E-2,1.9049011E-3,0E0,1.8555079E-2,0E0,0E0,0E0,0E0],"parents":[2147483647,0,0,1,1,2,2,4,4],"right_children":[2,4,6,-1,8,-1,-1,-1,-1],"split_conditions":[3E0,7.1E1,2E0,3.231786E-2,4.6666667E-1,-8.642355E-3,-3.7701834E-2,2.085455E-2,-1.7075496E-2],"split_indices":[2,0,1,0,6,0,0,0,0],"split_type":[0,0,0,0,0,0,0,0,0],"sum_hessian":[6.24907E0,4.1478424E0,2.101228E0,1.4851599E0,2.6626823E0,1.0876336E0,1.0135943E0,1.3760403E0,1.286642E0],"tree_param":{"num_deleted":"0","num_feature":"8","num_nodes":"9","size_leaf_vector":"1"}},{"base_weights":[-2.442731E-3,7.332333E-2,-8.710901E-2,-9.826476E-3,1.17925696E-1,-3.868398E-2,-1.992661E-3,4.1922078E-2,1.1747933E-2],"categories":[],"categories_nodes":[],"categories_segments":[],"categories_sizes":[],"default_left":[0,0,0,0,0,0,0,0,0],"id":60,"left_children":[1,3,5,-1,7,-1,-1,-1,-1],"loss_changes":[5.274311E-2,2.4475206E-2,1.2171263E-2,0E0,1.7120317E-4,0E0,0E0,0E0,0E0],"parents":[2147483647,0,0,1,1,2,2,4,4],"right_children":[2,4,6,-1,8,-1,-1,-1,-1],"split_conditions":[3E0,1E0,5.3333336E-1,-9.826476E-3,1E0,-3.868398E-2,-1.992661E-3,4.1922078E-2,1.1747933E-2],"split_indices":[1,7,6,0,4,0,0,0,0],"split_type":[0,0,0,0,0,0,0,0,0],"sum_hessian":[6.226378E0,3.3565998E0,2.869778E0,1.0722001E0,2.2844E0,1.4917046E0,1.3780732E0,1.1827196E0,1.1016803E0],"tree_param":{"num_deleted":"0","num_feature":"8","num_nodes":"9","size_leaf_vector":"1"}},{"base_weights":[-1.2857184E-3,5.4477364E-2,-2.8304072E-2,7.636373E-2,-5.2637593E-3,3.1578427E-3,3.436192E-2],"categories":[],"categories_nodes":[],"categories_segments":[],"categories_sizes":[],"default_left":[0,0,0,0,0,0,0],"id":61,"left_children":[1,3,-1,5,-1,-1,-1],"loss_changes":[4.2562243E-2,9.447354E-3,0E0,9.178352E-3,0E0,0E0,0E0],"parents":[2147483647,0,0,1,1,3,3],"right_children":[2,4,-1,6,-1,-1,-1],"split_conditions":[3E0,1.76E2,-2.8304072E-2,5.6666666E-1,-5.2637593E-3,3.1578427E-3,3.436192E-2],"split_indices":[2,0,0,6,0,0,0],"split_type":[0,0,0,0,0,0,0],"sum_hessian":[6.2113595E0,4.1432776E0,2.0680816E0,3.1314344E0,1.0118433E0,1.6175559E0,1.5138787E0],"tree_param":{"num_deleted":"0","num_feature":"8","num_nodes":"7","size_leaf_vector":"1"}},{"base_weights":[-3.4893802E-4,6.887704E-2,-7.869362E-2,-8.967314E-3,3.2992214E-2,-3.51817E-2,4.6073985E-3],"categories":[],"categories_nodes":[],"categories_segments":[],"categories_sizes":[],"default_left":[0,0,0,0,0,0,0],"id":62,"left_children":[1,3,5,-1,-1,-1,-1],"loss_changes":[4.4453945E-2,2.0961298E-2,1.574483E-2,0E0,0E0,0E0,0E0],"parents":[2147483647,0,0,1,1,2,2],"right_children":[2,4,6,-1,-1,-1,-1],"split_conditions":[3E0,1E0,4E0,-8.967314E-3,3.2992214E-2,-3.51817E-2,4.6073985E-3],"split_indices":[1,7,1,0,0,0,0],"split_type":[0,0,0,0,0,0,0],"sum_hessian":[6.1971703E0,3.3542101E0,2.8429601E0,1.0656979E0,2.2885122E0,1.8409387E0,1.0020216E0],"tree_param":{"num_deleted":"0","num_feature":"8","num_nodes":"7","size_leaf_vector":"1"}},{"base_weights":[-1.1772792E-3,5.0442334E-2,-2.6391288E-2,2.9625358E-2,4.2172903E-3,1.8672971E-2,-1.7551325E-2],"categories":[],"categories_nodes":[],"categories_segments":[],"categories_sizes":[],"default_left":[0,0,0,0,0,0,0],"id":63,"left_children":[1,3,-1,-1,5,-1,-1],"loss_changes":[3.6629777E-2,1.1064333E-2,0E0,0E0,1.7005317E-2,0E0,0E0],"parents":[2147483647,0,0,1,1,4,4],"right_children":[2,4,-1,-1,6,-1,-1],"split_conditions":[3E0,7.1E1,-2.6391288E-2,2.9625358E-2,4.6666667E-1,1.8672971E-2,-1.7551325E-2],"split_indices":[2,0,0,0,6,0,0],"split_type":[0,0,0,0,0,0,0],"sum_hessian":[6.185374E0,4.14124E0,2.0441334E0,1.4693445E0,2.6718957E0,1.3918641E0,1.2800316E0],"tree_param":{"num_deleted":"0","num_feature":"8","num_nodes":"7","size_leaf_vector":"1"}},{"base_weights":[-2.1640751E-4,-8.5960306E-2,5.5069722E-2,-4.381024E-2,3.048995E-3,7.07682E-2,-5.0643675E-2,-6.100619E-2,2.4857169E-2],"categories":[],"categories_nodes":[],"categories_segments":[],"categories_sizes":[],"default_left":[0,0,0,0,0,0,0,0,0],"id":64,"left_children":[1,3,5,-1,-1,-1,7,-1,-1],"loss_changes":[3.8714282E-2,1.9965727E-2,1.0690612E-1,0E0,0E0,0E0,9.754462E-2,0E0,0E0],"parents":[2147483647,0,0,1,1,2,2,6,6],"right_children":[2,4,6,-1,-1,-1,8,-1,-1],"split_conditions":[1E0,5.3333336E-1,1.16E2,-4.381024E-2,3.048995E-3,7.07682E-2,2E0,-6.100619E-2,2.4857169E-2],"split_indices":[7,6,0,0,0,0,7,0,0],"split_type":[0,0,0,0,0,0,0,0,0],"sum_hessian":[6.168197E0,2.2005353E0,3.9676619E0,1.0346706E0,1.1658647E0,1.0094812E0,2.9581807E0,1.1357583E0,1.8224223E0],"tree_param":{"num_deleted":"0","num_feature":"8","num_nodes":"9","size_leaf_vector":"1"}},{"base_weights":[-1.0093976E-3,6.337749E-2,-7.434871E-2,-4.505453E-3,9.336868E-2,-9.881774E-4,-3.382767E-2,3.399684E-2,8.487698E-3],"categories":[],"categories_nodes":[],"categories_segments":[],"categories_sizes":[],"default_left":[0,0,0,0,0,0,0,0,0],"id":65,"left_children":[1,3,5,-1,7,-1,-1,-1,-1],"loss_changes":[3.8325906E-2,1.1583773E-2,9.966977E-3,0E0,1.0409951E-3,0E0,0E0,0E0,0E0],"parents":[2147483647,0,0,1,1,2,2,4,4],"right_children":[2,4,6,-1,8,-1,-1,-1,-1],"split_conditions":[3E0,1E0,1E0,-4.505453E-3,1E0,-9.881774E-4,-3.382767E-2,3.399684E-2,8.487698E-3],"split_indices":[1,7,2,0,4,0,0,0,0],"split_type":[0,0,0,0,0,0,0,0,0],"sum_hessian":[6.11843E0,3.3303995E0,2.7880306E0,1.0596825E0,2.2707171E0,1.359274E0,1.4287567E0,1.170446E0,1.1002711E0],"tree_param":{"num_deleted":"0","num_feature":"8","num_nodes":"9","size_leaf_vector":"1"}},{"base_weights":[-2.7657815E-4,-1.5066028E-1,1.6496523E-1,9.599969E-2,-2.7146567E-2,-2.7399875E-2,1.1435323E-2],"categories":[],"categories_nodes":[],"categories_segments":[],"categories_sizes":[],"default_left":[0,0,0,0,0,0,0],"id":66,"left_children":[1,-1,3,-1,5,-1,-1],"loss_changes":[6.7225397E-1,0E0,1.903427E-1,0E0,1.8753333E-2,0E0,0E0],"parents":[2147483647,0,0,2,2,4,4],"right_children":[2,-1,4,-1,6,-1,-1],"split_conditions":[1E0,-1.5066028E-1,3E0,9.599969E-2,1E0,-2.7399875E-2,1.1435323E-2],"split_indices":[3,0,1,0,7,0,0],"split_type":[0,0,0,0,0,0,0],"sum_hessian":[6.1065373E0,1.0073894E0,5.099148E0,2.4534936E0,2.6456544E0,1.132464E0,1.5131904E0],"tree_param":{"num_deleted":"0","num_feature":"8","num_nodes":"7","size_leaf_vector":"1"}},{"base_weights":[-1.1405038E-2,6.5503746E-2,-4.0451072E-2,8.9435235E-2,1.1849571E-3,3.8143907E-2,3.5148512E-3],"categories":[],"categories_nodes":[],"categories_segments":[],"categories_sizes":[],"default_left":[0,0,0,0,0,0,0],"id":67,"left_children":[1,3,-1,5,-1,-1,-1],"loss_changes":[7.4030414E-2,6.8714377E-3,0E0,8.725256E-3,0E0,0E0,0E0],"parents":[2147483647,0,0,1,1,3,3],"right_children":[2,4,-1,6,-1,-1,-1],"split_conditions":[3E0,6.333333E-1,-4.0451072E-2,1E0,1.1849571E-3,3.8143907E-2,3.5148512E-3],"split_indices":[2,6,0,2,0,0,0],"split_type":[0,0,0,0,0,0,0],"sum_hessian":[5.8680224E0,3.9044948E0,1.9635274E0,2.4852846E0,1.4192103E0,1.2451398E0,1.2401446E0],"tree_param":{"num_deleted":"0","num_feature":"8","num_nodes":"7","size_leaf_vector":"1"}},{"base_weights":[-7.6737925E-3,5.4722376E-2,-3.2580562E-2,-2.8379762E-4,7.9774074E-2,3.8642023E-2,9.090887E-4],"categories":[],"categories_nodes":[],"categories_segments":[],"categories_sizes":[],"default_left":[0,0,0,0,0,0,0],"id":68,"left_children":[1,3,-1,-1,5,-1,-1],"loss_changes":[4.9056847E-2,6.902823E-3,0E0,0E0,1.2358423E-2,0E0,0E0],"parents":[2147483647,0,0,1,1,4,4],"right_children":[2,4,-1,-1,6,-1,-1],"split_conditions":[3E0,3.6666667E-1,-3.2580562E-2,-2.8379762E-4,6.666667E-1,3.8642023E-2,9.090887E-4],"split_indices":[2,6,0,0,6,0,0],"split_type":[0,0,0,0,0,0,0],"sum_hessian":[5.8461647E0,3.895612E0,1.9505529E0,1.5076474E0,2.3879645E0,1.0431082E0,1.3448564E0],"tree_param":{"num_deleted":"0","num_feature":"8","num_nodes":"7","size_leaf_vector":"1"}},{"base_weights":[-4.4070035E-3,-8.486897E-2,4.911419E-2,-4.322741E-2,3.6960207E-3,6.2387034E-2,-5.4453537E-2,3.3120508E-3,-2.8013078E-2],"categories":[],"categories_nodes":[],"categories_segments":[],"categories_sizes":[],"default_left":[0,0,0,0,0,0,0,0,0],"id":69,"left_children":[1,3,5,-1,-1,-1,7,-1,-1],"loss_changes":[3.3585753E-2,1.9591192E-2,8.923165E-2,0E0,0E0,0E0,1.0358906E-2,0E0,0E0],"parents":[2147483647,0,0,1,1,2,2,6,6],"right_children":[2,4,6,-1,-1,-1,8,-1,-1],"split_conditions":[1E0,5.6666666E-1,1.19E2,-4.322741E-2,3.6960207E-3,6.2387034E-2,1.79E2,3.3120508E-3,-2.8013078E-2],"split_indices":[7,6,0,0,0,0,0,0,0],"split_type":[0,0,0,0,0,0,0,0,0],"sum_hessian":[5.831076E0,2.095326E0,3.7357504E0,1.0021031E0,1.0932227E0,1.0766121E0,2.6591382E0,1.2582796E0,1.4008588E0],"tree_param":{"num_deleted":"0","num_feature":"8","num_nodes":"9","size_leaf_vector":"1"}},{"base_weights":[-3.3065288E-3,5.0515253E-2,-2.7661005E-2,2.8920257E-2,4.5196414E-3,1.6623322E-2,-1.5397483E-2],"categories":[],"categories_nodes":[],"categories_segments":[],"categories_sizes":[],"default_left":[0,0,0,0,0,0,0],"id":70,"left_children":[1,3,-1,-1,5,-1,-1],"loss_changes":[3.7201595E-2,9.869596E-3,0E0,0E0,1.2755933E-2,0E0,0E0],"parents":[2147483647,0,0,1,1,4,4],"right_children":[2,4,-1,-1,6,-1,-1],"split_conditions":[3E0,7.1E1,-2.7661005E-2,2.8920257E-2,4.6666667E-1,1.6623322E-2,-1.5397483E-2],"split_indices":[2,0,0,0,6,0,0],"split_type":[0,0,0,0,0,0,0],"sum_hessian":[5.801827E0,3.8827841E0,1.9190427E0,1.395125E0,2.4876592E0,1.3056118E0,1.1820474E0],"tree_param":{"num_deleted":"0","num_feature":"8","num_nodes":"7","size_leaf_vector":"1"}},{"base_weights":[-1.9569204E-3,-5.2471805E-2,2.768944E-2,2.9611874E-2,-5.6055672E-2,-2.2868734E-2,4.9757425E-2],"categories":[],"categories_nodes":[],"categories_segments":[],"categories_sizes":[],"default_left":[0,0,0,0,0,0,0],"id":71,"left_children":[1,3,-1,5,-1,-1,-1],"loss_changes":[3.7153207E-2,6.1299734E-2,0E0,7.0350535E-2,0E0,0E0,0E0],"parents":[2147483647,0,0,1,1,3,3],"right_children":[2,4,-1,6,-1,-1,-1],"split_conditions":[2E0,1.16E2,2.768944E-2,8E1,-5.6055672E-2,-2.2868734E-2,4.9757425E-2],"split_indices":[7,0,0,0,0,0,0],"split_type":[0,0,0,0,0,0,0],"sum_hessian":[5.7860193E0,4.0557094E0,1.7303101E0,3.0017748E0,1.0539346E0,1.9373083E0,1.0644665E0],"tree_param":{"num_deleted":"0","num_feature":"8","num_nodes":"7","size_leaf_vector":"1"}},{"base_weights":[-1.63369E-3,5.911195E-2,-6.892656E-2,8.7375425E-2,-4.056027E-3,-2.9953508E-2,-2.1502879E-3,4.554326E-3,3.554533E-2],"categories":[],"categories_nodes":[],"categories_segments":[],"categories_sizes":[],"default_left":[0,0,0,0,0,0,0,0,0],"id":72,"left_children":[1,3,5,7,-1,-1,-1,-1,-1],"loss_changes":[3.168001E-2,9.57253E-3,6.283853E-3,5.110927E-3,0E0,0E0,0E0,0E0,0E0],"parents":[2147483647,0,0,1,1,2,2,3,3],"right_children":[2,4,6,8,-1,-1,-1,-1,-1],"split_conditions":[3E0,5E-1,5.3333336E-1,1.43E2,-4.056027E-3,-2.9953508E-2,-2.1502879E-3,4.554326E-3,3.554533E-2],"split_indices":[1,6,6,0,0,0,0,0,0],"split_type":[0,0,0,0,0,0,0,0,0],"sum_hessian":[5.753259E0,3.0876198E0,2.6656392E0,2.0765712E0,1.0110486E0,1.3653916E0,1.3002476E0,1.0734421E0,1.0031292E0],"tree_param":{"num_deleted":"0","num_feature":"8","num_nodes":"9","size_leaf_vector":"1"}},{"base_weights":[-5.638233E-4,5.113251E-2,-2.6458926E-2,2.9233554E-2,4.6803043E-3,-1.6223067E-2,1.6255744E-2],"categories":[],"categories_nodes":[],"categories_segments":[],"categories_sizes":[],"default_left":[0,0,0,0,0,0,0],"id":73,"left_children":[1,3,-1,-1,5,-1,-1],"loss_changes":[3.5052035E-2,1.0028095E-2,0E0,0E0,1.3062918E-2,0E0,0E0],"parents":[2147483647,0,0,1,1,4,4],"right_children":[2,4,-1,-1,6,-1,-1],"split_conditions":[3E0,7.1E1,-2.6458926E-2,2.9233554E-2,3E0,-1.6223067E-2,1.6255744E-2],"split_indices":[2,0,0,0,1,0,0],"split_type":[0,0,0,0,0,0,0],"sum_hessian":[5.741813E0,3.8733525E0,1.8684607E0,1.3898883E0,2.4834642E0,1.0933938E0,1.3900706E0],"tree_param":{"num_deleted":"0","num_feature":"8","num_nodes":"7","size_leaf_vector":"1"}},{"base_weights":[2.218128E-5,6.1142128E-2,-6.8271644E-2,-2.6864042E-3,2.7083319E-2,-2.9067935E-2,-5.21568E-3],"categories":[],"categories_nodes":[],"categories_segments":[],"categories_sizes":[],"default_left":[0,0,0,0,0,0,0],"id":74,"left_children":[1,3,5,-1,-1,-1,-1],"loss_changes":[3.2254055E-2,9.136061E-3,3.6307983E-3,0E0,0E0,0E0,0E0],"parents":[2147483647,0,0,1,1,2,2],"right_children":[2,4,6,-1,-1,-1,-1],"split_conditions":[3E0,1.01E2,1E0,-2.6864042E-3,2.7083319E-2,-2.9067935E-2,-5.21568E-3],"split_indices":[1,0,7,0,0,0,0],"split_type":[0,0,0,0,0,0,0],"sum_hessian":[5.7271223E0,3.077561E0,2.6495612E0,1.106972E0,1.9705889E0,1.1171095E0,1.5324516E0],"tree_param":{"num_deleted":"0","num_feature":"8","num_nodes":"7","size_leaf_vector":"1"}},{"base_weights":[-1.4605757E-3,4.5813963E-2,-2.4448132E-2,2.9230863E-2,3.006464E-3,-2.0274378E-2,1.7971523E-2],"categories":[],"categories_nodes":[],"categories_segments":[],"categories_sizes":[],"default_left":[0,0,0,0,0,0,0],"id":75,"left_children":[1,3,-1,-1,5,-1,-1],"loss_changes":[2.9156826E-2,1.0456463E-2,0E0,0E0,1.887305E-2,0E0,0E0],"parents":[2147483647,0,0,1,1,4,4],"right_children":[2,4,-1,-1,6,-1,-1],"split_conditions":[3E0,6.2E1,-2.4448132E-2,2.9230863E-2,1E0,-2.0274378E-2,1.7971523E-2],"split_indices":[2,0,0,0,2,0,0],"split_type":[0,0,0,0,0,0,0],"sum_hessian":[5.719455E0,3.8643801E0,1.8550746E0,1.1733141E0,2.691066E0,1.1172591E0,1.573807E0],"tree_param":{"num_deleted":"0","num_feature":"8","num_nodes":"7","size_leaf_vector":"1"}},{"base_weights":[-6.558511E-4,-2.2366375E-2,4.8076335E-2,5.391517E-2,-4.0156808E-2,4.7568185E-3,-2.6858563E-2],"categories":[],"categories_nodes":[],"categories_segments":[],"categories_sizes":[],"default_left":[0,0,0,0,0,0,0],"id":76,"left_children":[1,-1,3,-1,5,-1,-1],"loss_changes":[2.7728042E-2,0E0,6.1204113E-2,0E0,1.1375712E-2,0E0,0E0],"parents":[2147483647,0,0,2,2,4,4],"right_children":[2,-1,4,-1,6,-1,-1],"split_conditions":[1E0,-2.2366375E-2,1.19E2,5.391517E-2,3E0,4.7568185E-3,-2.6858563E-2],"split_indices":[7,0,0,0,1,0,0],"split_type":[0,0,0,0,0,0,0],"sum_hessian":[5.7042704E0,2.0562446E0,3.6480255E0,1.0478394E0,2.600186E0,1.5361956E0,1.0639905E0],"tree_param":{"num_deleted":"0","num_feature":"8","num_nodes":"7","size_leaf_vector":"1"}},{"base_weights":[9.940414E-4,-4.4068515E-2,2.492335E-2,-3.7305348E-2,1.884287E-2],"categories":[],"categories_nodes":[],"categories_segments":[],"categories_sizes":[],"default_left":[0,0,0,0,0],"id":77,"left_children":[1,3,-1,-1,-1],"loss_changes":[2.8381689E-2,5.043802E-2,0E0,0E0,0E0],"parents":[2147483647,0,0,1,1],"right_children":[2,4,-1,-1,-1],"split_conditions":[2E0,5.6666666E-1,2.492335E-2,-3.7305348E-2,1.884287E-2],"split_indices":[7,6,0,0,0],"split_type":[0,0,0,0,0],"sum_hessian":[5.683213E0,3.967986E0,1.7152269E0,2.1725588E0,1.7954273E0],"tree_param":{"num_deleted":"0","num_feature":"8","num_nodes":"5","size_leaf_vector":"1"}},{"base_weights":[1.6454882E-3,4.1016366E-2,-2.5860839E-2,-4.423239E-2,5.39856E-2,-3.0665407E-2,1.3815402E-2],"categories":[],"categories_nodes":[],"categories_segments":[],"categories_sizes":[],"default_left":[0,0,0,0,0,0,0],"id":78,"left_children":[1,3,-1,5,-1,-1,-1],"loss_changes":[2.6611717E-2,7.055273E-2,0E0,2.60555E-2,0E0,0E0,0E0],"parents":[2147483647,0,0,1,1,3,3],"right_children":[2,4,-1,6,-1,-1,-1],"split_conditions":[1.79E2,1E0,-2.5860839E-2,8.3E1,5.39856E-2,-3.0665407E-2,1.3815402E-2],"split_indices":[0,4,0,0,0,0,0],"split_type":[0,0,0,0,0,0,0],"sum_hessian":[5.671939E0,4.2847476E0,1.3871913E0,3.0778563E0,1.2068913E0,1.7936684E0,1.2841879E0],"tree_param":{"num_deleted":"0","num_feature":"8","num_nodes":"7","size_leaf_vector":"1"}},{"base_weights":[2.888912E-3,4.9309045E-2,-2.3423914E-2,3.1389337E-2,-1.2362003E-2,-1.728449E-2,1.1449341E-2],"categories":[],"categories_nodes":[],"categories_segments":[],"categories_sizes":[],"default_left":[0,0,0,0,0,0,0],"id":79,"left_children":[1,3,-1,-1,5,-1,-1],"loss_changes":[2.8833838E-2,1.779915E-2,0E0,0E0,9.474399E-3,0E0,0E0],"parents":[2147483647,0,0,1,1,4,4],"right_children":[2,4,-1,-1,6,-1,-1],"split_conditions":[3E0,8.1E1,-2.3423914E-2,3.1389337E-2,1.69E2,-1.728449E-2,1.1449341E-2],"split_indices":[2,0,0,0,0,0,0],"split_type":[0,0,0,0,0,0,0],"sum_hessian":[5.647149E0,3.8378696E0,1.8092792E0,1.6558698E0,2.182E0,1.0770607E0,1.1049391E0],"tree_param":{"num_deleted":"0","num_feature":"8","num_nodes":"7","size_leaf_vector":"1"}},{"base_weights":[2.3554843E-3,6.0790434E-2,-6.4490974E-2,2.7994063E-2,-3.429177E-4,-1.1099061E-3,-2.9234396E-2],"categories":[],"categories_nodes":[],"categories_segments":[],"categories_sizes":[],"default_left":[0,0,0,0,0,0,0],"id":80,"left_children":[1,3,5,-1,-1,-1,-1],"loss_changes":[2.9824711E-2,8.270928E-3,6.808835E-3,0E0,0E0,0E0,0E0],"parents":[2147483647,0,0,1,1,2,2],"right_children":[2,4,6,-1,-1,-1,-1],"split_conditions":[3E0,3.6666667E-1,1E0,2.7994063E-2,-3.429177E-4,-1.1099061E-3,-2.9234396E-2],"split_indices":[1,6,2,0,0,0,0],"split_type":[0,0,0,0,0,0,0],"sum_hessian":[5.6316323E0,3.053212E0,2.5784202E0,1.6697196E0,1.3834924E0,1.29745E0,1.2809703E0],"tree_param":{"num_deleted":"0","num_feature":"8","num_nodes":"7","size_leaf_vector":"1"}},{"base_weights":[1.2427768E-3,-3.89294E-2,2.2352342E-2,3.4327682E-2,-4.8763305E-2,-1.4753333E-2,4.0721647E-2],"categories":[],"categories_nodes":[],"categories_segments":[],"categories_sizes":[],"default_left":[0,0,0,0,0,0,0],"id":81,"left_children":[1,3,-1,5,-1,-1,-1],"loss_changes":[2.2382982E-2,5.0243046E-2,0E0,3.989225E-2,0E0,0E0,0E0],"parents":[2147483647,0,0,1,1,3,3],"right_children":[2,4,-1,6,-1,-1,-1],"split_conditions":[2E0,1.16E2,2.2352342E-2,8E1,-4.8763305E-2,-1.4753333E-2,4.0721647E-2],"split_indices":[7,0,0,0,0,0,0],"split_type":[0,0,0,0,0,0,0],"sum_hessian":[5.61944E0,3.932079E0,1.687361E0,2.922462E0,1.0096173E0,1.8851933E0,1.0372685E0],"tree_param":{"num_deleted":"0","num_feature":"8","num_nodes":"7","size_leaf_vector":"1"}},{"base_weights":[7.7320926E-4,4.449762E-2,-2.275344E-2,2.9609494E-2,-5.5490835E-3,-1.7795619E-2,1.3761011E-2],"categories":[],"categories_nodes":[],"categories_segments":[],"categories_sizes":[],"default_left":[0,0,0,0,0,0,0],"id":82,"left_children":[1,3,-1,-1,5,-1,-1],"loss_changes":[2.5476366E-2,1.3650788E-2,0E0,0E0,1.228234E-2,0E0,0E0],"parents":[2147483647,0,0,1,1,4,4],"right_children":[2,4,-1,-1,6,-1,-1],"split_conditions":[3E0,7.1E1,-2.275344E-2,2.9609494E-2,3E0,-1.7795619E-2,1.3761011E-2],"split_indices":[2,0,0,0,1,0,0],"split_type":[0,0,0,0,0,0,0],"sum_hessian":[5.5972967E0,3.8305204E0,1.7667761E0,1.3722484E0,2.458272E0,1.1265706E0,1.3317014E0],"tree_param":{"num_deleted":"0","num_feature":"8","num_nodes":"7","size_leaf_vector":"1"}},{"base_weights":[9.733416E-4,6.0196888E-2,-6.654689E-2,2.476223E-2,1.0610975E-3,-3.6852218E-3,-3.0559486E-2],"categories":[],"categories_nodes":[],"categories_segments":[],"categories_sizes":[],"default_left":[0,0,0,0,0,0,0],"id":83,"left_children":[1,3,5,-1,-1,-1,-1],"loss_changes":[3.0333033E-2,4.8131132E-3,5.5546947E-3,0E0,0E0,0E0,0E0],"parents":[2147483647,0,0,1,1,2,2],"right_children":[2,4,6,-1,-1,-1,-1],"split_conditions":[3E0,4.3333334E-1,6.333333E-1,2.476223E-2,1.0610975E-3,-3.6852218E-3,-3.0559486E-2],"split_indices":[1,6,6,0,0,0,0],"split_type":[0,0,0,0,0,0,0],"sum_hessian":[5.583776E0,3.0324264E0,2.5513496E0,1.8472041E0,1.1852223E0,1.5372795E0,1.01407E0],"tree_param":{"num_deleted":"0","num_feature":"8","num_nodes":"7","size_leaf_vector":"1"}},{"base_weights":[-6.0252025E-4,4.861249E-2,-5.634774E-2,-6.2058354E-4,2.0419396E-2,-7.7888544E-4,-2.5819877E-2],"categories":[],"categories_nodes":[],"categories_segments":[],"categories_sizes":[],"default_left":[0,0,0,0,0,0,0],"id":84,"left_children":[1,3,5,-1,-1,-1,-1],"loss_changes":[2.077275E-2,4.1117547E-3,5.439802E-3,0E0,0E0,0E0,0E0],"parents":[2147483647,0,0,1,1,2,2],"right_children":[2,4,6,-1,-1,-1,-1],"split_conditions":[3E0,1.01E2,1E0,-6.2058354E-4,2.0419396E-2,-7.7888544E-4,-2.5819877E-2],"split_indices":[1,0,2,0,0,0,0],"split_type":[0,0,0,0,0,0,0],"sum_hessian":[5.5731864E0,3.0279205E0,2.545266E0,1.0876888E0,1.9402318E0,1.2933553E0,1.2519107E0],"tree_param":{"num_deleted":"0","num_feature":"8","num_nodes":"7","size_leaf_vector":"1"}},{"base_weights":[-1.4674914E-3,4.0829934E-2,-2.2588978E-2,2.4912084E-2,-6.7894417E-3,-1.4778158E-2,1.1524983E-2],"categories":[],"categories_nodes":[],"categories_segments":[],"categories_sizes":[],"default_left":[0,0,0,0,0,0,0],"id":85,"left_children":[1,3,-1,-1,5,-1,-1],"loss_changes":[2.3581527E-2,1.0259053E-2,0E0,0E0,8.018825E-3,0E0,0E0],"parents":[2147483647,0,0,1,1,4,4],"right_children":[2,4,-1,-1,6,-1,-1],"split_conditions":[3E0,8.1E1,-2.2588978E-2,2.4912084E-2,1.69E2,-1.4778158E-2,1.1524983E-2],"split_indices":[2,0,0,0,0,0,0],"split_type":[0,0,0,0,0,0,0],"sum_hessian":[5.566959E0,3.8234394E0,1.7435195E0,1.632521E0,2.1909182E0,1.0833873E0,1.1075311E0],"tree_param":{"num_deleted":"0","num_feature":"8","num_nodes":"7","size_leaf_vector":"1"}},{"base_weights":[-1.1708874E-3,-2.1237444E-2,4.5233566E-2,1.2081681E-1,-2.2584075E-2,4.830991E-2,8.138517E-3],"categories":[],"categories_nodes":[],"categories_segments":[],"categories_sizes":[],"default_left":[0,0,0,0,0,0,0],"id":86,"left_children":[1,-1,3,5,-1,-1,-1],"loss_changes":[2.4380064E-2,0E0,5.0481733E-2,7.598702E-3,0E0,0E0,0E0],"parents":[2147483647,0,0,2,2,3,3],"right_children":[2,-1,4,6,-1,-1,-1],"split_conditions":[1E0,-2.1237444E-2,1.79E2,1.19E2,-2.2584075E-2,4.830991E-2,8.138517E-3],"split_indices":[7,0,0,0,0,0,0],"split_type":[0,0,0,0,0,0,0],"sum_hessian":[5.5551977E0,2.0116253E0,3.5435727E0,2.1762002E0,1.3673724E0,1.0196819E0,1.1565182E0],"tree_param":{"num_deleted":"0","num_feature":"8","num_nodes":"7","size_leaf_vector":"1"}},{"base_weights":[1.1381955E-3,-3.8916837E-2,2.2139732E-2,-3.377564E-2,1.7567433E-2],"categories":[],"categories_nodes":[],"categories_segments":[],"categories_sizes":[],"default_left":[0,0,0,0,0],"id":87,"left_children":[1,3,-1,-1,-1],"loss_changes":[2.1898584E-2,4.1556038E-2,0E0,0E0,0E0],"parents":[2147483647,0,0,1,1],"right_children":[2,4,-1,-1,-1],"split_conditions":[2E0,5.6666666E-1,2.2139732E-2,-3.377564E-2,1.7567433E-2],"split_indices":[7,6,0,0,0],"split_type":[0,0,0,0,0],"sum_hessian":[5.5373588E0,3.8689609E0,1.6683977E0,2.1152782E0,1.7536827E0],"tree_param":{"num_deleted":"0","num_feature":"8","num_nodes":"5","size_leaf_vector":"1"}},{"base_weights":[1.6889123E-3,4.9417052E-2,-5.3271215E-2,2.204466E-2,-1.4009338E-3,1.34053E-4,-2.8250074E-2],"categories":[],"categories_nodes":[],"categories_segments":[],"categories_sizes":[],"default_left":[0,0,0,0,0,0,0],"id":88,"left_children":[1,3,5,-1,-1,-1,-1],"loss_changes":[1.9757017E-2,5.566193E-3,7.764998E-3,0E0,0E0,0E0,0E0],"parents":[2147483647,0,0,1,1,2,2],"right_children":[2,4,6,-1,-1,-1,-1],"split_conditions":[3E0,4.3333334E-1,6.333333E-1,2.204466E-2,-1.4009338E-3,1.34053E-4,-2.8250074E-2],"split_indices":[1,6,6,0,0,0,0],"split_type":[0,0,0,0,0,0,0],"sum_hessian":[5.5282373E0,3.012766E0,2.5154715E0,1.8368771E0,1.1758888E0,1.5147989E0,1.0006726E0],"tree_param":{"num_deleted":"0","num_feature":"8","num_nodes":"7","size_leaf_vector":"1"}},{"base_weights":[3.263948E-5,4.1482855E-2,-2.2019478E-2,2.59049E-2,-8.610996E-3,-1.4333374E-2,1.0241402E-2],"categories":[],"categories_nodes":[],"categories_segments":[],"categories_sizes":[],"default_left":[0,0,0,0,0,0,0],"id":89,"left_children":[1,3,-1,-1,5,-1,-1],"loss_changes":[2.2888876E-2,1.1545779E-2,0E0,0E0,6.95572E-3,0E0,0E0],"parents":[2147483647,0,0,1,1,4,4],"right_children":[2,4,-1,-1,6,-1,-1],"split_conditions":[3E0,8.1E1,-2.2019478E-2,2.59049E-2,1.69E2,-1.4333374E-2,1.0241402E-2],"split_indices":[2,0,0,0,0,0,0],"split_type":[0,0,0,0,0,0,0],"sum_hessian":[5.5196753E0,3.8062196E0,1.7134556E0,1.626067E0,2.1801527E0,1.0763531E0,1.1037996E0],"tree_param":{"num_deleted":"0","num_feature":"8","num_nodes":"7","size_leaf_vector":"1"}},{"base_weights":[-6.7504284E-6,-1.84691E-2,4.079837E-2,1.1376557E-1,-2.2167167E-2,4.540005E-2,7.5768153E-3],"categories":[],"categories_nodes":[],"categories_segments":[],"categories_sizes":[],"default_left":[0,0,0,0,0,0,0],"id":90,"left_children":[1,-1,3,5,-1,-1,-1],"loss_changes":[1.8858746E-2,0E0,4.6191074E-2,6.662801E-3,0E0,0E0,0E0],"parents":[2147483647,0,0,2,2,3,3],"right_children":[2,-1,4,6,-1,-1,-1],"split_conditions":[1E0,-1.84691E-2,1.79E2,1.19E2,-2.2167167E-2,4.540005E-2,7.5768153E-3],"split_indices":[7,0,0,0,0,0,0],"split_type":[0,0,0,0,0,0,0],"sum_hessian":[5.5080047E0,1.9928896E0,3.515115E0,2.1532369E0,1.361878E0,1.0133295E0,1.1399075E0],"tree_param":{"num_deleted":"0","num_feature":"8","num_nodes":"7","size_leaf_vector":"1"}},{"base_weights":[1.9184331E-3,3.8618922E-2,-1.923494E-2,2.7470073E-2,-3.0491247E-3,1.4643005E-2,-1.6735654E-2],"categories":[],"categories_nodes":[],"categories_segments":[],"categories_sizes":[],"default_left":[0,0,0,0,0,0,0],"id":91,"left_children":[1,3,-1,-1,5,-1,-1],"loss_changes":[1.8209796E-2,1.0862527E-2,0E0,0E0,1.2711211E-2,0E0,0E0],"parents":[2147483647,0,0,1,1,4,4],"right_children":[2,4,-1,-1,6,-1,-1],"split_conditions":[3E0,6.2E1,-1.923494E-2,2.7470073E-2,4.6666667E-1,1.4643005E-2,-1.6735654E-2],"split_indices":[2,0,0,0,6,0,0],"split_type":[0,0,0,0,0,0,0],"sum_hessian":[5.4921007E0,3.7970002E0,1.6951005E0,1.144782E0,2.6522183E0,1.3747698E0,1.2774484E0],"tree_param":{"num_deleted":"0","num_feature":"8","num_nodes":"7","size_leaf_vector":"1"}},{"base_weights":[2.2974862E-3,-3.6176614E-2,2.141564E-2,-3.1440828E-2,1.6455943E-2],"categories":[],"categories_nodes":[],"categories_segments":[],"categories_sizes":[],"default_left":[0,0,0,0,0],"id":92,"left_children":[1,3,-1,-1,-1],"loss_changes":[1.9808576E-2,3.589822E-2,0E0,0E0,0E0],"parents":[2147483647,0,0,1,1],"right_children":[2,4,-1,-1,-1],"split_conditions":[2E0,5.6666666E-1,2.141564E-2,-3.1440828E-2,1.6455943E-2],"split_indices":[7,6,0,0,0],"split_type":[0,0,0,0,0],"sum_hessian":[5.480609E0,3.826214E0,1.6543945E0,2.095296E0,1.7309183E0],"tree_param":{"num_deleted":"0","num_feature":"8","num_nodes":"5","size_leaf_vector":"1"}},{"base_weights":[2.5893066E-3,5.3724837E-2,-5.6959588E-2,2.333156E-2,1.2210263E-3,-2.6344767E-2,-2.0625321E-3],"categories":[],"categories_nodes":[],"categories_segments":[],"categories_sizes":[],"default_left":[0,0,0,0,0,0,0],"id":93,"left_children":[1,3,5,-1,-1,-1,-1],"loss_changes":[2.276966E-2,4.455977E-3,4.7676703E-3,0E0,0E0,0E0,0E0],"parents":[2147483647,0,0,1,1,2,2],"right_children":[2,4,6,-1,-1,-1,-1],"split_conditions":[3E0,3.6666667E-1,1E0,2.333156E-2,1.2210263E-3,-2.6344767E-2,-2.0625321E-3],"split_indices":[1,6,7,0,0,0,0],"split_type":[0,0,0,0,0,0,0],"sum_hessian":[5.4726105E0,2.9969163E0,2.475694E0,1.6375997E0,1.3593166E0,1.0657476E0,1.4099464E0],"tree_param":{"num_deleted":"0","num_feature":"8","num_nodes":"7","size_leaf_vector":"1"}},{"base_weights":[1.2174941E-3,3.4380134E-2,-2.1345263E-2,-3.5516005E-2,4.4185787E-2,-2.6222741E-2,1.3107396E-2],"categories":[],"categories_nodes":[],"categories_segments":[],"categories_sizes":[],"default_left":[0,0,0,0,0,0,0],"id":94,"left_children":[1,3,-1,5,-1,-1,-1],"loss_changes":[1.7961705E-2,4.553874E-2,0E0,2.0097453E-2,0E0,0E0,0E0],"parents":[2147483647,0,0,1,1,3,3],"right_children":[2,4,-1,6,-1,-1,-1],"split_conditions":[1.79E2,1E0,-2.1345263E-2,8.3E1,4.4185787E-2,-2.6222741E-2,1.3107396E-2],"split_indices":[0,4,0,0,0,0,0],"split_type":[0,0,0,0,0,0,0],"sum_hessian":[5.465003E0,4.107623E0,1.3573799E0,2.960386E0,1.147237E0,1.7260233E0,1.2343626E0],"tree_param":{"num_deleted":"0","num_feature":"8","num_nodes":"7","size_leaf_vector":"1"}},{"base_weights":[2.3806372E-3,3.898818E-2,-1.919505E-2,2.754288E-2,-1.6903117E-2,-3.4214895E-2,2.439053E-2],"categories":[],"categories_nodes":[],"categories_segments":[],"categories_sizes":[],"default_left":[0,0,0,0,0,0,0],"id":95,"left_children":[1,3,-1,-1,5,-1,-1],"loss_changes":[1.815912E-2,1.565457E-2,0E0,0E0,3.9472427E-2,0E0,0E0],"parents":[2147483647,0,0,1,1,4,4],"right_children":[2,4,-1,-1,6,-1,-1],"split_conditions":[3E0,8.1E1,-1.919505E-2,2.754288E-2,3E0,-3.4214895E-2,2.439053E-2],"split_indices":[2,0,0,0,1,0,0],"split_type":[0,0,0,0,0,0,0],"sum_hessian":[5.447822E0,3.7769217E0,1.6709003E0,1.6113917E0,2.16553E0,1.007522E0,1.1580081E0],"tree_param":{"num_deleted":"0","num_feature":"8","num_nodes":"7","size_leaf_vector":"1"}},{"base_weights":[1.4349748E-3,5.5098686E-2,-6.084215E-2,2.189244E-2,3.5240487E-3,-2.1723341E-3,-2.6483636E-2],"categories":[],"categories_nodes":[],"categories_segments":[],"categories_sizes":[],"default_left":[0,0,0,0,0,0,0],"id":96,"left_children":[1,3,5,-1,-1,-1,-1],"loss_changes":[2.4838155E-2,2.2256356E-3,4.4357926E-3,0E0,0E0,0E0,0E0],"parents":[2147483647,0,0,1,1,2,2],"right_children":[2,4,6,-1,-1,-1,-1],"split_conditions":[3E0,3.6666667E-1,1E0,